TimeStamp,W01,W02,W03,W1_0,W1_1,W1_2,W1_3,W1_4,W1_5,W2_0,W2_1,W2_2,W2_3,W2_4,W2_5,W3_0,W3_1,W3_2,W3_3,W3_4,W3_5
1,-0.349549472,-0.310541421,-0.372414738,-0.349549472,0.923066139,1.473832488,0.95505178,-0.345919162,-0.143872425,-0.310541421,0.994882047,1.654812932,1.123368621,-0.363563299,-0.143830746,-0.372414738,1.250690579,1.952547669,1.504499555,-0.596778333,-0.144378588
2,-0.33734104,-0.313793004,-0.274588943,-0.33734104,0.916918278,1.424188852,0.946906149,-0.309996068,-0.160320327,-0.313793004,1.089249253,1.689228535,1.134491444,-0.41097334,-0.141052097,-0.274588943,1.186163425,1.862160325,1.460722446,-0.526867926,-0.166770667
3,-0.349055946,-0.271298796,-0.341000676,-0.349055946,0.954567254,1.428122044,0.939339161,-0.299702138,-0.166116506,-0.271298796,1.054171324,1.669416428,1.125314474,-0.338001698,-0.14468953,-0.341000676,1.222759366,1.751982808,1.47578764,-0.572217822,-0.15483436
4,-0.366220385,-0.322294295,-0.439102292,-0.366220385,0.964311302,1.485364437,0.941918731,-0.300449818,-0.151617005,-0.322294295,1.03887558,1.614418983,1.146978498,-0.34437117,-0.130217403,-0.439102292,1.320608616,1.953536749,1.555344582,-0.650485277,-0.158990011
5,-0.317101479,-0.358588696,-0.339784771,-0.317101479,0.894380391,1.437473655,0.968027234,-0.339973807,-0.140683904,-0.358588696,1.114688993,1.641244173,1.187156081,-0.381477177,-0.137626812,-0.339784771,1.245625496,1.819928646,1.46097672,-0.651167333,-0.164270341
6,-0.342217326,-0.364493251,-0.220623672,-0.342217326,0.89589709,1.411541581,0.967043757,-0.358908385,-0.161211371,-0.364493251,1.078564167,1.647941947,1.211115837,-0.44723478,-0.164867997,-0.220623672,1.238918304,1.91288197,1.616751909,-0.404405653,-0.135359064
7,-0.343454689,-0.31104809,-0.305918723,-0.343454689,0.916313529,1.435130358,0.955044568,-0.367810488,-0.151721761,-0.31104809,1.007644176,1.616143346,1.195640206,-0.413954854,-0.140519142,-0.305918723,1.174449682,1.91067493,1.57218492,-0.69097209,-0.160330951
8,-0.346536756,-0.31352067,-0.471269637,-0.346536756,0.893161714,1.43751359,0.928435922,-0.322348982,-0.152606949,-0.31352067,1.037029624,1.626335025,1.221615195,-0.450374722,-0.145810679,-0.471269637,1.196996212,1.831029773,1.489542961,-0.815298736,-0.149477124
9,-0.339201123,-0.326861084,-0.247180492,-0.339201123,0.891704202,1.360659003,0.983442128,-0.3571091,-0.167318985,-0.326861084,1.069794893,1.652181387,1.200656652,-0.385618091,-0.142703757,-0.247180492,1.197753668,1.830567002,1.585335851,-0.572057843,-0.159178972
10,-0.342363119,-0.316431582,-0.200192034,-0.342363119,0.96808362,1.419212937,1.01864922,-0.372476995,-0.147874594,-0.316431582,1.017568111,1.564100385,1.323676944,-0.412020206,-0.145351917,-0.200192034,1.234048843,1.933996558,1.65362215,-0.704247952,-0.169747174
11,-0.3368828,-0.345757961,-0.33611837,-0.3368828,0.9411273,1.406905532,1.021151066,-0.386371166,-0.155746683,-0.345757961,1.105287671,1.619190216,1.274002075,-0.482763469,-0.146789715,-0.33611837,1.271544337,1.814175725,1.512937427,-0.737807214,-0.166549534
12,-0.365823418,-0.340164959,-0.392018497,-0.365823418,0.852117658,1.383246899,0.959296465,-0.386474788,-0.154403299,-0.340164959,1.122843981,1.635817409,1.239633799,-0.478214353,-0.134393826,-0.392018497,1.169119716,1.749681234,1.604600191,-0.697437227,-0.170208126
13,-0.329357535,-0.353200376,-0.225315705,-0.329357535,0.861458182,1.334348321,0.993581653,-0.345437348,-0.143643424,-0.353200376,1.014330268,1.576875806,1.216312408,-0.493845403,-0.144952312,-0.225315705,1.210013628,1.931814194,1.804948926,-0.660053134,-0.170139313
14,-0.299156845,-0.327236801,-0.326143891,-0.299156845,0.872275889,1.40495193,1.027235985,-0.341236144,-0.13214615,-0.327236801,1.038873196,1.520129204,1.273856878,-0.469468862,-0.122747988,-0.326143891,1.230638385,1.904756188,1.637538433,-0.743101656,-0.161584437
15,-0.334201366,-0.315501302,-0.418205142,-0.334201366,0.856473148,1.322916746,1.032298684,-0.411368132,-0.148084447,-0.315501302,1.042212248,1.643821239,1.302367687,-0.443447441,-0.136008024,-0.418205142,1.13686049,1.712507606,1.55521524,-0.761264324,-0.171925291
16,-0.289603084,-0.313943118,-0.269732177,-0.289603084,0.920140505,1.331958532,1.002499342,-0.39224267,-0.157673448,-0.313943118,0.985406399,1.550376534,1.290913343,-0.473998368,-0.137580201,-0.269732177,1.202464223,1.836744189,1.667698145,-0.768549263,-0.184749633
17,-0.333208859,-0.287524045,-0.262423217,-0.333208859,0.927353263,1.412117481,0.981826901,-0.434621274,-0.157757193,-0.287524045,1.019936085,1.541939378,1.269898057,-0.493604243,-0.144113854,-0.262423217,1.268095136,1.892241716,1.676725745,-0.714146256,-0.150841698
18,-0.323637068,-0.324806184,-0.335933983,-0.323637068,0.90057683,1.365031362,0.943529725,-0.358570576,-0.152930796,-0.324806184,1.069486141,1.620269418,1.289253235,-0.52577728,-0.13912265,-0.335933983,1.19938767,1.695960879,1.65921545,-0.797236681,-0.15503253
19,-0.328492641,-0.324966013,-0.320052713,-0.328492641,0.855800927,1.328063011,1.011799335,-0.38466385,-0.156813845,-0.324966013,1.024902701,1.584648252,1.229405522,-0.499670088,-0.119136594,-0.320052713,1.16508913,1.715260506,1.693836808,-0.736596465,-0.167889804
20,-0.372040749,-0.333949953,-0.268043518,-0.372040749,0.854912698,1.363210559,1.062523484,-0.383777976,-0.153436095,-0.333949953,0.995013475,1.496493101,1.302763343,-0.509932339,-0.133551568,-0.268043518,1.167986035,1.811585069,1.711621284,-0.675344169,-0.17854853
21,-0.313565016,-0.362660646,-0.309411168,-0.313565016,0.834652424,1.30162251,1.044839263,-0.404468149,-0.177450851,-0.362660646,1.012475014,1.586431265,1.400812864,-0.537409961,-0.133555889,-0.309411168,1.06757462,1.695730209,1.65218997,-0.783682346,-0.184708267
22,-0.317012548,-0.324327767,-0.346073449,-0.317012548,0.838983774,1.278567076,1.043699026,-0.427921981,-0.169415295,-0.324327767,0.967753708,1.560447693,1.347163677,-0.511322141,-0.141716063,-0.346073449,1.052481055,1.624452472,1.551559329,-0.768283486,-0.163013399
23,-0.350444734,-0.294890821,-0.283855498,-0.350444734,0.917918682,1.348127723,1.054393649,-0.430517346,-0.133654207,-0.294890821,0.981597602,1.448776245,1.33186543,-0.54503572,-0.141839638,-0.283855498,1.097667098,1.746726632,1.768857718,-0.719887674,-0.16390799
24,-0.317608505,-0.327003837,-0.269604385,-0.317608505,0.875486434,1.25584054,1.014979362,-0.371301532,-0.127766132,-0.327003837,1.044372678,1.55252552,1.348853827,-0.576505303,-0.154991537,-0.269604385,1.146366358,1.731879473,1.805612803,-0.683271945,-0.176545516
25,-0.329968303,-0.294111192,-0.295321822,-0.329968303,0.83974725,1.300084472,1.041567564,-0.433549523,-0.144845888,-0.294111192,1.043577075,1.519525051,1.337213635,-0.489275426,-0.109317243,-0.295321822,1.095603704,1.673480749,1.672654152,-0.756107688,-0.183814198
26,-0.320560336,-0.330898494,-0.237878352,-0.320560336,0.835915625,1.328341484,1.051203489,-0.441701919,-0.153353959,-0.330898494,0.964791954,1.492417097,1.298775554,-0.510980666,-0.12866351,-0.237878352,1.138818145,1.590020061,1.640712023,-0.785544932,-0.195597351
27,-0.362019837,-0.361634254,-0.236052856,-0.362019837,0.74876821,1.223905206,0.989691019,-0.432360768,-0.168805301,-0.361634254,0.986843884,1.51207757,1.320013881,-0.554831684,-0.131985009,-0.236052856,1.17246294,1.686515212,1.671147108,-0.716257274,-0.200663403
28,-0.292537838,-0.304169476,-0.277637601,-0.292537838,0.741386473,1.212621808,0.952468932,-0.423181325,-0.147203207,-0.304169476,0.911131859,1.477909327,1.34929812,-0.520375848,-0.148185045,-0.277637601,1.124853253,1.675724506,1.685320258,-0.747715175,-0.158803329
29,-0.342123508,-0.261182338,-0.311921,-0.342123508,0.820324957,1.19794488,0.985147774,-0.408469379,-0.167702377,-0.261182338,0.870504141,1.421514511,1.257926345,-0.561724961,-0.15650326,-0.311921,1.086783171,1.635893941,1.606602192,-0.824724972,-0.139828101
30,-0.290525973,-0.317637205,-0.219392538,-0.290525973,0.795978367,1.194501996,1.00917995,-0.372366756,-0.155173123,-0.317637205,0.933806241,1.394106865,1.288489103,-0.505020261,-0.128527731,-0.219392538,1.057938457,1.632699728,1.648547411,-0.72743696,-0.124972828
31,-0.268331826,-0.265858084,-0.232127458,-0.268331826,0.787038147,1.224919558,1.036141872,-0.388340235,-0.158367813,-0.265858084,0.949970245,1.440771937,1.301892042,-0.497751057,-0.130908668,-0.232127458,1.115667939,1.594962597,1.642863512,-0.70706135,-0.129940495
32,-0.269788235,-0.230621174,-0.321205616,-0.269788235,0.814492762,1.235458016,1.040276527,-0.417047709,-0.172537282,-0.230621174,0.908328235,1.421990633,1.337333441,-0.518460155,-0.142366067,-0.321205616,1.060881019,1.565321803,1.702186346,-0.701853156,-0.139649048
33,-0.288969159,-0.306982487,-0.329984576,-0.288969159,0.811868012,1.195175886,1.042858481,-0.37262854,-0.17963995,-0.306982487,0.944508553,1.443547249,1.304532051,-0.530125082,-0.141357377,-0.329984576,1.050053477,1.588929772,1.684675932,-0.686713398,-0.153178945
34,-0.262071431,-0.281985879,-0.215569079,-0.262071431,0.786045194,1.222193718,1.034175992,-0.369564325,-0.187014475,-0.281985879,0.972522199,1.389828444,1.334994674,-0.507303596,-0.156738907,-0.215569079,1.050884128,1.670669675,1.717228293,-0.731525004,-0.177364439
35,-0.303375065,-0.285917342,-0.260421932,-0.303375065,0.77474153,1.153148651,1.011458874,-0.413955837,-0.179129466,-0.285917342,0.931218028,1.368132234,1.348234415,-0.516014934,-0.166132376,-0.260421932,1.05377996,1.59589231,1.732130885,-0.738603592,-0.178138316
36,-0.255425006,-0.273780078,-0.259664297,-0.255425006,0.733412325,1.144336581,0.962733328,-0.446581334,-0.091758661,-0.273780078,0.900200844,1.359441161,1.344051242,-0.538238823,-0.172201887,-0.259664297,1.055052161,1.660336971,1.701069832,-0.754314244,-0.180048689
37,-0.275087386,-0.302799344,-0.188436121,-0.275087386,0.719049573,1.141264796,0.995276034,-0.395940125,-0.077762552,-0.302799344,0.895914495,1.357600689,1.273167849,-0.561830401,-0.10837011,-0.188436121,1.043180466,1.670688272,1.707999825,-0.70357269,-0.170914337
38,-0.296515614,-0.287708312,-0.235590875,-0.296515614,0.738493025,1.11422658,0.924338102,-0.376049668,-0.04383352,-0.287708312,0.885447621,1.342868805,1.301428914,-0.485896498,-0.079108022,-0.235590875,1.062398195,1.624114513,1.708279014,-0.700542033,-0.171141222
39,-0.27168113,-0.279626548,-0.290457219,-0.27168113,0.738738775,1.089346647,1.043223381,-0.360191971,-0.042931918,-0.279626548,0.891522169,1.303967953,1.20142591,-0.471937507,-0.066993907,-0.290457219,1.060124159,1.60245645,1.692663908,-0.710953712,-0.176460132
40,-0.277075887,-0.272735178,-0.214144677,-0.277075887,0.759140372,1.106582165,1.013621211,-0.347088009,-0.042841401,-0.272735178,0.889421225,1.264108419,1.336349487,-0.49788633,-0.050457027,-0.214144677,1.044671416,1.622997165,1.637611628,-0.667547047,-0.18661952
41,-0.255505741,-0.276316255,-0.209518984,-0.255505741,0.746891499,1.10443604,0.99382174,-0.375071704,-0.048341911,-0.276316255,0.856345892,1.303580284,1.313360095,-0.451639622,-0.092332855,-0.209518984,1.107599378,1.539845109,1.581710458,-0.606506646,-0.1788041
42,-0.255685508,-0.238800779,-0.243157923,-0.255685508,0.745921612,1.112964749,1.010329723,-0.390205532,-0.082918532,-0.238800779,0.870042503,1.29240036,1.251808524,-0.47012797,-0.111520313,-0.243157923,1.119132161,1.588107705,1.625053048,-0.652112067,-0.155434385
43,-0.243134186,-0.242707193,-0.238102108,-0.243134186,0.754761636,1.154832959,1.004579306,-0.38833046,-0.091016211,-0.242707193,0.871959805,1.340172172,1.319573164,-0.478141785,-0.114627279,-0.238102108,1.125078917,1.61841774,1.654342771,-0.684232652,-0.172594056
44,-0.268625051,-0.232991919,-0.222113669,-0.268625051,0.746272802,1.115652919,0.989346862,-0.395947725,-0.137629271,-0.232991919,0.851480901,1.369931936,1.276328921,-0.485395938,-0.129529133,-0.222113669,1.106720209,1.662467003,1.671057701,-0.71788913,-0.165856928
45,-0.26660651,-0.227317482,-0.229825199,-0.26660651,0.739432275,1.098975778,1.008552194,-0.397242755,-0.142629623,-0.227317482,0.8537817,1.354428887,1.283204675,-0.489052594,-0.132457554,-0.229825199,1.117849469,1.663308144,1.635185838,-0.715438545,-0.153445378
46,-0.255866438,-0.267062038,-0.21858418,-0.255866438,0.762179315,1.110585093,0.990140498,-0.394665211,-0.135226294,-0.267062038,0.883618355,1.329177141,1.316774845,-0.495173693,-0.136501774,-0.21858418,1.094920993,1.656955719,1.628020883,-0.729593575,-0.161367297
47,-0.249069303,-0.237762034,-0.218598291,-0.249069303,0.764747083,1.103603005,0.953957498,-0.373594642,-0.127156422,-0.237762034,0.875384033,1.353155613,1.327762485,-0.511966109,-0.129440561,-0.218598291,1.11157155,1.671900749,1.602672338,-0.699231863,-0.169323981
48,-0.249010086,-0.21220389,-0.218561292,-0.249010086,0.841042221,1.017006516,0.936847389,-0.323999375,-0.148537904,-0.21220389,0.868465006,1.324633718,1.236388087,-0.465320408,-0.141315177,-0.218561292,1.085620761,1.670124769,1.555177569,-0.715823174,-0.149299279
49,-0.259507,-0.230825186,-0.208324447,-0.259507,0.852018118,1.061174631,0.956852198,-0.35545814,-0.150721833,-0.230825186,0.934475064,1.249271274,1.22859621,-0.42858845,-0.133279219,-0.208324447,1.146303535,1.686333895,1.539696574,-0.706483543,-0.15079914
50,-0.252030581,-0.264491051,-0.229026809,-0.252030581,0.847930431,1.105234265,0.964382887,-0.3877545,-0.142669871,-0.264491051,0.921588838,1.306297302,1.284964561,-0.467595816,-0.12337777,-0.229026809,1.152747035,1.710179448,1.461500764,-0.585945129,-0.150811285
51,-0.241080344,-0.25683412,-0.27950877,-0.241080344,0.862096369,1.120328426,0.946025372,-0.406966031,-0.138467282,-0.25683412,0.93663615,1.340927362,1.278288126,-0.505605876,-0.113783531,-0.27950877,1.187838435,1.750044942,1.257972717,-0.415405273,-0.154211983
52,-0.231999889,-0.248896629,-0.275979251,-0.231999889,0.856372535,1.121554732,0.947344422,-0.399648219,-0.148271844,-0.248896629,0.907821417,1.355645299,1.257490158,-0.503005683,-0.116558805,-0.275979251,1.210327148,1.706630111,1.194427371,-0.351287037,-0.138151705
53,-0.221107736,-0.242707342,-0.285945415,-0.221107736,0.867587209,1.143106222,0.935610294,-0.371203631,-0.143189728,-0.242707342,0.919892669,1.360671163,1.233946323,-0.505254447,-0.113652326,-0.285945415,1.262507558,1.736745238,1.135362625,-0.373153985,-0.129465029
54,-0.217884272,-0.214979976,-0.274845719,-0.217884272,0.871005774,1.133325696,0.91447866,-0.360008568,-0.136441693,-0.214979976,0.902325749,1.37273705,1.231413841,-0.515947342,-0.121742874,-0.274845719,1.357997894,1.711058259,1.087235808,-0.372437179,-0.120508246
55,-0.213888898,-0.215664715,-0.26886338,-0.213888898,0.863224924,1.140368462,0.907289028,-0.366940439,-0.134812266,-0.215664715,0.888080418,1.393349171,1.214330196,-0.481919914,-0.134764567,-0.26886338,1.455081582,1.621174574,1.088190794,-0.333221257,-0.103261463
56,-0.225708783,-0.194988176,-0.299599737,-0.225708783,0.915940762,1.125756264,0.877668023,-0.347355753,-0.143107444,-0.194988176,0.93307817,1.367494583,1.217226744,-0.491874099,-0.114420183,-0.299599737,1.567355394,1.658124924,1.062378407,-0.358186543,-0.090791062
57,-0.278642654,-0.228431016,-0.2708579,-0.278642654,0.945672393,1.180601001,0.781105042,-0.181398332,-0.134001598,-0.228431016,0.958827794,1.370124936,1.187838078,-0.479809999,-0.11135038,-0.2708579,1.672009349,1.60738492,1.076605439,-0.276447117,-0.050402518
58,-0.280892432,-0.266203105,-0.279272139,-0.280892432,0.96684134,1.186686635,0.601822615,-0.084583737,-0.133025169,-0.266203105,0.9536165,1.420470357,1.075658321,-0.315835238,-0.10971541,-0.279272139,1.804834962,1.611846924,1.056959271,-0.289040804,-0.021726493
59,-0.241394669,-0.277883232,-0.317374468,-0.241394669,1.022140503,1.156594992,0.569289446,-0.060036123,-0.129481062,-0.277883232,0.999936044,1.430633664,0.890199304,-0.2064621,-0.110568933,-0.317374468,1.887762427,1.581285715,1.081248283,-0.319294512,0.011486436
60,-0.268579572,-0.253153414,-0.320062995,-0.268579572,1.102349997,1.186876416,0.532296479,-0.058410421,-0.104889371,-0.253153414,1.039983153,1.396364808,0.831833124,-0.185052693,-0.094034426,-0.320062995,1.945867538,1.620886445,1.039969325,-0.262709975,0.055925149
61,-0.26820159,-0.280103505,-0.298788875,-0.26820159,1.152853847,1.159286737,0.464630246,-0.061926708,-0.098402701,-0.280103505,1.117726088,1.428592205,0.784134805,-0.213979155,-0.096467748,-0.298788875,1.946427345,1.620548844,1.074767709,-0.240848497,0.082732178
62,-0.288459212,-0.289637506,-0.296308339,-0.288459212,1.227439523,1.170702934,0.497172266,-0.046673194,-0.065542042,-0.289637506,1.184341311,1.403834939,0.726405919,-0.191062108,-0.075988948,-0.296308339,2.036442757,1.671742439,1.02398622,-0.245954618,0.021065552
63,-0.289855838,-0.263656288,-0.301364005,-0.289855838,1.283412099,1.16199708,0.486703336,-0.010289278,-0.037013683,-0.263656288,1.305775404,1.397817731,0.756254435,-0.184454501,-0.057199571,-0.301364005,2.046989441,1.625566959,1.046743393,-0.238896728,-0.016366549
64,-0.294623256,-0.277129531,-0.350178748,-0.294623256,1.37080133,1.13420248,0.461836636,-0.015037943,-0.011292554,-0.277129531,1.402269483,1.374713659,0.730094075,-0.147522584,-0.031409699,-0.350178748,2.057694912,1.622642636,1.098049879,-0.251383156,-0.016846826
65,-0.291598678,-0.272864074,-0.304233074,-0.291598678,1.389861941,1.154914379,0.48807925,0.019576017,0.029026542,-0.272864074,1.507639289,1.388361931,0.712606907,-0.102148205,-0.003712538,-0.304233074,2.084945202,1.598175883,1.05235517,-0.216103896,-0.018786706
66,-0.285519481,-0.278600991,-0.303165734,-0.285519481,1.431235552,1.089744568,0.43851772,-0.000147354,0.060999971,-0.278600991,1.561959028,1.325353146,0.719606817,-0.118765734,0.012952225,-0.303165734,2.054381609,1.533249617,1.091875553,-0.270041108,-0.0099202
67,-0.269458205,-0.277976751,-0.331558377,-0.269458205,1.434169292,1.128419161,0.472831517,0.006058633,0.094283201,-0.277976751,1.63591373,1.330168486,0.71099329,-0.117592335,0.060017455,-0.331558377,2.031810045,1.549488425,1.106965542,-0.190474108,0.035311088
68,-0.314326942,-0.275188029,-0.316393495,-0.314326942,1.464460611,1.146115422,0.435507476,0.009361397,0.10628742,-0.275188029,1.632113218,1.295076728,0.725410521,-0.082562283,0.082713664,-0.316393495,2.009960651,1.609933138,1.084810376,-0.207702041,0.066883616
69,-0.294183701,-0.280121297,-0.335829645,-0.294183701,1.481525183,1.114348054,0.513955712,0.002061483,0.032000445,-0.280121297,1.678852677,1.324623823,0.669945419,-0.101388693,0.123748153,-0.335829645,2.021160364,1.623342752,1.036725283,-0.150592566,0.086968407
70,-0.313432872,-0.29829061,-0.292824626,-0.313432872,1.54314661,1.118082047,0.491017759,0.038524777,-0.013355262,-0.29829061,1.699402332,1.376355171,0.789907455,-0.060727041,0.036725372,-0.292824626,1.990256429,1.583908081,1.022342682,-0.152463913,0.062935151
71,-0.305624723,-0.3225981,-0.321676403,-0.305624723,1.519676805,1.112734318,0.457860351,0.000621721,-0.035269082,-0.3225981,1.744211912,1.324698091,0.761856198,-0.042029042,-0.003532252,-0.321676403,2.033753872,1.561438203,1.071095228,-0.194654495,0.061451562
72,-0.318498433,-0.295002908,-0.315822214,-0.318498433,1.53461194,1.122684121,0.445971847,0.037189201,-0.018133597,-0.295002908,1.728070617,1.359478116,0.74378252,-0.076462612,-0.011118664,-0.315822214,2.104284763,1.515737176,1.054320931,-0.14672783,0.076732956
73,-0.316188276,-0.308910906,-0.292566091,-0.316188276,1.534853339,1.094383121,0.472123295,0.017022071,0.023163838,-0.308910906,1.768562436,1.334672332,0.700501442,-0.083600521,-0.008510508,-0.292566091,2.053870201,1.567048073,1.16373384,-0.110440433,0.104814366
74,-0.325596988,-0.289768398,-0.294582874,-0.325596988,1.534709692,1.099305153,0.483943522,0.043122306,0.052659079,-0.289768398,1.722474098,1.285810471,0.732746542,-0.089721054,0.036784165,-0.294582874,2.017921686,1.588853598,1.119466782,-0.163435176,0.126710981
75,-0.326058596,-0.30748859,-0.267991066,-0.326058596,1.514932394,1.14152813,0.438924253,0.022555901,0.077793576,-0.30748859,1.716912866,1.297787309,0.748303473,-0.05233217,0.064268745,-0.267991066,1.952209473,1.513876677,1.094341397,-0.120188102,0.077480011
76,-0.321368277,-0.309443295,-0.282462895,-0.321368277,1.498195767,1.107979655,0.43033886,0.050955154,0.106434286,-0.309443295,1.69993341,1.329978466,0.73257494,-0.054212015,0.102963351,-0.282462895,1.916890144,1.506400943,1.097953558,-0.072851695,0.042837128
77,-0.282099783,-0.313094795,-0.328435659,-0.282099783,1.480323911,1.092356801,0.423998624,0.108092241,0.086688623,-0.313094795,1.694574594,1.32558322,0.668877602,-0.016335882,0.108143546,-0.328435659,1.93648386,1.478075266,1.126483083,-0.142219588,0.061613426
78,-0.309639633,-0.305225968,-0.341771454,-0.309639633,1.535481691,1.116110802,0.431165338,0.036525138,0.09093371,-0.305225968,1.689223766,1.32762897,0.707216859,-0.011004396,0.078655653,-0.341771454,1.950507879,1.539190531,1.169404745,-0.115107425,0.085007936
79,-0.304498881,-0.313821107,-0.320243686,-0.304498881,1.550344229,1.089624643,0.437134981,0.058942717,0.105006501,-0.313821107,1.734772682,1.325212836,0.68670845,-0.037155408,0.081379928,-0.320243686,1.992085218,1.575596571,1.096835256,-0.100445613,0.127896219
80,-0.311037332,-0.241352051,-0.315624297,-0.311037332,1.533955097,1.042025805,0.496209025,0.095849305,0.124946818,-0.241352051,1.750457406,1.264876366,0.693279147,-0.008548209,0.118658438,-0.315624297,1.949862719,1.563678384,1.054429173,0.004237344,0.126489699
81,-0.30426538,-0.296606004,-0.295823336,-0.30426538,1.55439949,1.086223602,0.484046102,0.112562284,0.122420751,-0.296606004,1.756305814,1.300019503,0.769784629,-0.029950606,0.123933181,-0.295823336,1.879685283,1.500037789,1.168989062,-0.063771464,0.082282111
82,-0.31628269,-0.335885197,-0.326395988,-0.31628269,1.440840721,1.040635705,0.472819626,0.087542363,0.070408903,-0.335885197,1.751166463,1.28883934,0.742132127,0.018714674,0.140463814,-0.326395988,1.883570671,1.452154636,1.128311634,-0.09488079,0.072368108
83,-0.319031417,-0.292492688,-0.273517013,-0.319031417,1.41291368,1.055839181,0.47470808,0.100169942,0.075617686,-0.292492688,1.632108212,1.241728425,0.721064329,0.030768376,0.097186305,-0.273517013,1.858571887,1.532140851,1.137583852,-0.045693375,0.084296897
84,-0.312086374,-0.304674089,-0.303768784,-0.312086374,1.453772068,1.033188105,0.445150316,0.085457258,0.067825928,-0.304674089,1.606493592,1.25006032,0.767641604,0.015164817,0.078562751,-0.303768784,1.83534956,1.498782873,1.129353642,0.006097421,0.105014376
85,-0.313026965,-0.312955201,-0.293572456,-0.313026965,1.434722424,1.045579791,0.480597466,0.088826105,0.112004027,-0.312955201,1.679002523,1.210290551,0.716748476,0.006353986,0.098651484,-0.293572456,1.822369218,1.469495177,1.144542694,-0.02376378,0.123037718
86,-0.302039325,-0.323391497,-0.295338333,-0.302039325,1.460523129,1.03669703,0.428370416,0.104946733,0.131157607,-0.323391497,1.654277921,1.266073346,0.730619669,0.037120074,0.133347273,-0.295338333,1.85987711,1.380792975,1.175223947,-0.003818903,0.12766546
87,-0.290982723,-0.313735664,-0.333907157,-0.290982723,1.418837905,1.004846811,0.440692812,0.104238905,0.126859814,-0.313735664,1.658612132,1.26303637,0.723598778,0.02003099,0.143965691,-0.333907157,1.952966928,1.420789957,1.138010502,-0.022825006,0.101602532
88,-0.303941667,-0.314897954,-0.335600436,-0.303941667,1.417022347,1.052053213,0.463986576,0.12664488,0.080793731,-0.314897954,1.61272192,1.234559417,0.726141989,0.062025569,0.132330284,-0.335600436,1.923456907,1.447543025,1.122055173,0.037812591,0.08354824
89,-0.326135039,-0.307519972,-0.334324092,-0.326135039,1.414351821,1.049001217,0.483111858,0.108243957,0.103323139,-0.307519972,1.603077888,1.20755291,0.745568395,0.041600179,0.089092843,-0.334324092,1.767229915,1.418927908,1.236120224,-0.01115426,0.092327669
90,-0.314334959,-0.311514825,-0.339965284,-0.314334959,1.382204652,1.0078758,0.471424401,0.111934349,0.110246249,-0.311514825,1.576977372,1.238929987,0.767622054,0.040047351,0.130727559,-0.339965284,1.75916481,1.4257586,1.072762489,-0.005814094,0.11064893
91,-0.305597842,-0.272896439,-0.31902644,-0.305597842,1.331673265,0.99477458,0.459480882,0.08376909,0.134741709,-0.272896439,1.575659871,1.222973704,0.756595373,0.031418584,0.12667872,-0.31902644,1.798804641,1.354094625,1.065289259,0.100988805,0.127054796
92,-0.279598773,-0.276200473,-0.351982206,-0.279598773,1.35073781,0.982788265,0.436100274,0.150887713,0.137854785,-0.276200473,1.524785399,1.228787065,0.7347157,0.044323228,0.144990548,-0.351982206,1.824893951,1.397870779,1.214842558,0.042412143,0.091987818
93,-0.290926397,-0.253615439,-0.303665161,-0.290926397,1.422700882,0.960781991,0.418311834,0.153172478,0.111405797,-0.253615439,1.538484097,1.191569805,0.713625312,0.100161478,0.146725044,-0.303665161,1.83828187,1.426881552,1.202241898,0.038698718,0.086443737
94,-0.312785,-0.298700988,-0.307945609,-0.312785,1.435740232,0.99012959,0.446691811,0.097050399,0.115670569,-0.298700988,1.593725562,1.148536563,0.743996978,0.108514532,0.114850663,-0.307945609,1.751557946,1.391048908,1.192415714,0.107458636,0.093294792
95,-0.303114414,-0.343181521,-0.313436478,-0.303114414,1.394486427,1.00031805,0.46672523,0.114834294,0.096406654,-0.343181521,1.624254823,1.190359473,0.761261523,0.077138923,0.110609971,-0.313436478,1.78211689,1.378485441,1.171014071,0.070237473,0.107002385
96,-0.331858665,-0.302135706,-0.316134185,-0.331858665,1.360327244,0.94237107,0.49083513,0.151694953,0.129091054,-0.302135706,1.585900307,1.20260632,0.747175455,0.092020124,0.141142398,-0.316134185,1.783597708,1.343474746,1.1485219,0.133730456,0.109391928
97,-0.354419947,-0.278786004,-0.332812726,-0.354419947,1.303798437,0.96169591,0.465269089,0.191007107,0.132636577,-0.278786004,1.506819487,1.196721673,0.76428175,0.081894092,0.139113531,-0.332812726,1.730226994,1.388489127,1.206252813,0.079997048,0.119584426
98,-0.355637461,-0.330584973,-0.300248146,-0.355637461,1.316923857,0.947339475,0.5036394,0.189377725,0.127178311,-0.330584973,1.484798074,1.157797813,0.759243906,0.11819414,0.132489279,-0.300248146,1.739265084,1.388453245,1.139539123,0.081439957,0.11262019
99,-0.316487402,-0.2912274,-0.302501917,-0.316487402,1.336782455,0.968640447,0.509580851,0.164407641,0.115819223,-0.2912274,1.515564442,1.097188234,0.77952826,0.130231991,0.140833989,-0.302501917,1.712026119,1.346808434,1.160944462,0.119940042,0.106739327
100,-0.294061273,-0.346146882,-0.26618132,-0.294061273,1.318949103,0.958347797,0.45031032,0.155216545,0.092310868,-0.346146882,1.533796787,1.132123232,0.770780623,0.127220064,0.112932183,-0.26618132,1.736316323,1.343931675,1.249975562,0.118266322,0.110395163
101,-0.322720587,-0.32367298,-0.316911161,-0.322720587,1.307340026,0.907311261,0.492563605,0.181868836,0.113305844,-0.32367298,1.538907528,1.132254243,0.747008622,0.079518259,0.135554299,-0.316911161,1.802022934,1.266484022,1.172165513,0.128563687,0.097597584
102,-0.288771689,-0.269146919,-0.328121573,-0.288771689,1.317247391,0.919050932,0.497234434,0.147103965,0.131895944,-0.269146919,1.49099803,1.128489971,0.788491488,0.124998458,0.129452109,-0.328121573,1.742708087,1.306611776,1.184354901,0.133197814,0.10750401
103,-0.27232188,-0.294518024,-0.302351087,-0.27232188,1.317353964,0.879276454,0.470417589,0.164427891,0.141787484,-0.294518024,1.520951748,1.128812909,0.771368861,0.127362996,0.133156583,-0.302351087,1.711444855,1.300866723,1.180064917,0.139769748,0.085678771
104,-0.304428101,-0.29971534,-0.300270438,-0.304428101,1.303512692,0.922459006,0.492576689,0.220639423,0.131402567,-0.29971534,1.500908971,1.049192786,0.768085301,0.173045456,0.131630808,-0.300270438,1.622061133,1.269824982,1.157411337,0.113560349,0.097182691
105,-0.328378737,-0.291168809,-0.281589925,-0.328378737,1.301220655,0.912563741,0.426965356,0.122046694,0.113235414,-0.291168809,1.457947135,1.098802686,0.781463206,0.160720825,0.127768919,-0.281589925,1.615793467,1.284042716,1.199685216,0.116762176,0.115105361
106,-0.267926097,-0.323497176,-0.29448092,-0.267926097,1.235058427,0.893004,0.501674294,0.173203066,0.128307343,-0.323497176,1.457035303,1.13459003,0.725750327,0.132480502,0.145121366,-0.29448092,1.670614004,1.236118436,1.234085083,0.142483115,0.091010854
107,-0.326855004,-0.334733456,-0.309387892,-0.326855004,1.25346756,0.867581487,0.5016011,0.147500724,0.112530902,-0.334733456,1.446569562,1.109622002,0.770133138,0.152016461,0.14541389,-0.309387892,1.645698786,1.203940749,1.255874634,0.122465767,0.109612569
108,-0.323136568,-0.302116603,-0.286296606,-0.323136568,1.306331396,0.874899864,0.448910892,0.216281652,0.1194693,-0.302116603,1.463168979,1.054520965,0.797857046,0.133768231,0.125118688,-0.286296606,1.65873909,1.243399024,1.20262301,0.201925561,0.087215036
109,-0.248152956,-0.307015955,-0.276863992,-0.248152956,1.29315412,0.860865176,0.467934698,0.238279745,0.123110533,-0.307015955,1.508726954,1.046346664,0.768644035,0.1808635,0.124135122,-0.276863992,1.64034915,1.242302537,1.199192166,0.215092853,0.09772335
110,-0.271203488,-0.307050884,-0.297494799,-0.271203488,1.267818451,0.818001091,0.441257864,0.191966727,0.121431515,-0.307050884,1.458343029,1.034560084,0.779149652,0.159244135,0.13764073,-0.297494799,1.665477276,1.300591111,1.272437572,0.15678665,0.105032541
111,-0.291703761,-0.25259313,-0.312793851,-0.291703761,1.210903645,0.834224582,0.517247677,0.164465055,0.115892991,-0.25259313,1.461072206,1.046621442,0.767734647,0.182089165,0.131747156,-0.312793851,1.669750571,1.24804306,1.257328391,0.184756175,0.097338341
112,-0.29434514,-0.266362309,-0.267467231,-0.29434514,1.207680225,0.824483037,0.518228948,0.188188314,0.120736226,-0.266362309,1.372713804,1.011219978,0.765871167,0.157622412,0.12581484,-0.267467231,1.642581105,1.275657654,1.21854651,0.163966641,0.115005814
113,-0.28680861,-0.297176003,-0.312198281,-0.28680861,1.195305586,0.800498128,0.53496027,0.195331424,0.112923637,-0.297176003,1.360897779,0.999540687,0.803773284,0.175135642,0.128027707,-0.312198281,1.632623076,1.272669435,1.185720801,0.095673904,0.100084208
114,-0.282996386,-0.276493132,-0.313339442,-0.282996386,1.178677082,0.776566148,0.510077834,0.139258534,0.121938676,-0.276493132,1.401295185,0.999911249,0.802888751,0.155057043,0.134359941,-0.313339442,1.622573018,1.23603034,1.218078971,0.135932997,0.097927429
115,-0.269011289,-0.295585632,-0.291379392,-0.269011289,1.209093213,0.793608189,0.477583468,0.170527562,0.105420426,-0.295585632,1.386713147,0.949487031,0.812059104,0.145580783,0.127071187,-0.291379392,1.641008615,1.270530343,1.224862933,0.187352315,0.100710444
116,-0.279021978,-0.270576,-0.28385374,-0.279021978,1.183601856,0.800111651,0.517852902,0.183607802,0.113110118,-0.270576,1.380866647,0.971455395,0.760976315,0.209407926,0.121421292,-0.28385374,1.635602474,1.226348281,1.223463297,0.127476066,0.097040489
117,-0.276324451,-0.299610674,-0.326594949,-0.276324451,1.200694442,0.828115642,0.524505138,0.209723756,0.110286407,-0.299610674,1.394024611,0.941974819,0.785394847,0.204778776,0.122521512,-0.326594949,1.649377942,1.201466799,1.196913719,0.126480311,0.099876389
118,-0.300026864,-0.274829566,-0.299204886,-0.300026864,1.203747153,0.770890176,0.552539945,0.195980489,0.118004404,-0.274829566,1.395553708,1.012499928,0.7954669,0.219093814,0.127492487,-0.299204886,1.618461251,1.157287478,1.166664243,0.15577513,0.113030538
119,-0.276487827,-0.299455822,-0.294029891,-0.276487827,1.185174704,0.790208817,0.532266617,0.170913935,0.119814239,-0.299455822,1.408211231,1.011624098,0.853611469,0.205685407,0.134389341,-0.294029891,1.602579474,1.146584511,1.230343223,0.153579801,0.099165037
120,-0.304226667,-0.297132283,-0.27266258,-0.304226667,1.210889339,0.81454432,0.48492384,0.140014529,0.131883323,-0.297132283,1.405702949,0.996250987,0.841725528,0.171600267,0.128514916,-0.27266258,1.580929399,1.144803286,1.325963855,0.146575317,0.106018662
121,-0.270387501,-0.280023932,-0.285494685,-0.270387501,1.20229876,0.798358798,0.496911287,0.147353098,0.118496865,-0.280023932,1.377478957,1.021727562,0.7793051,0.129948959,0.145922482,-0.285494685,1.594564319,1.114479423,1.400411963,0.056918547,0.098503426
122,-0.270256519,-0.261205494,-0.297408342,-0.270256519,1.195121765,0.816369236,0.502206147,0.161163956,0.121940121,-0.261205494,1.371430874,0.971835017,0.824526429,0.151607037,0.117765039,-0.297408342,1.589749217,1.139475107,1.396016836,0.090198077,0.097402558
123,-0.289265871,-0.26850602,-0.270739138,-0.289265871,1.181887627,0.791919589,0.515442789,0.152266204,0.100089028,-0.26850602,1.38504684,0.997006714,0.810010612,0.172641903,0.122327134,-0.270739138,1.567438841,1.149123311,1.351938009,0.129007667,0.083663598
124,-0.287665576,-0.267050356,-0.279326081,-0.287665576,1.195287943,0.771906972,0.49954766,0.153402463,0.08258374,-0.267050356,1.374595642,0.977011502,0.830017745,0.152477264,0.108264253,-0.279326081,1.602598667,1.148322821,1.328703403,0.163351893,0.091441542
125,-0.280994833,-0.291639358,-0.258843809,-0.280994833,1.195164204,0.739714384,0.518924117,0.163582057,0.081353679,-0.291639358,1.375483871,0.933036625,0.803804815,0.154397294,0.102007583,-0.258843809,1.590855479,1.148677826,1.331916332,0.110846445,0.063553095
126,-0.260666132,-0.235480696,-0.252232611,-0.260666132,1.183044076,0.73802048,0.552760243,0.150641173,0.079914421,-0.235480696,1.362815499,0.917688906,0.817134261,0.15283449,0.089037627,-0.252232611,1.614405513,1.161258817,1.34531188,0.133591384,0.082869351
127,-0.270454228,-0.289495111,-0.254460692,-0.270454228,1.166017294,0.735110462,0.573194683,0.166066676,0.090861842,-0.289495111,1.369111419,0.924535275,0.853197277,0.167727277,0.092256814,-0.254460692,1.602151036,1.143810987,1.343787313,0.121197268,0.057280283
128,-0.233745918,-0.260425955,-0.253566504,-0.233745918,1.151352882,0.691361666,0.644210279,0.08418835,0.090781674,-0.260425955,1.345956683,0.904951632,0.891798496,0.168030947,0.103301853,-0.253566504,1.61950767,1.131040573,1.380589724,0.12894544,0.061233085
129,-0.280278563,-0.250718772,-0.231549323,-0.280278563,1.171644092,0.74385035,0.591498554,0.118699104,0.096075401,-0.250718772,1.314597845,0.837166369,0.971080601,0.040405229,0.108450994,-0.231549323,1.647652388,1.122297525,1.379716873,0.109558091,0.06065445
130,-0.278972536,-0.284821272,-0.186495364,-0.278972536,1.14701438,0.742187619,0.574923515,0.146269441,0.098926112,-0.284821272,1.326334476,0.901366413,0.923939168,0.116221964,0.084526852,-0.186495364,1.651157022,1.023179889,1.391803265,0.114998914,0.084167853
131,-0.251543403,-0.260902792,0.033632681,-0.251543403,1.174367189,0.737977386,0.595486343,0.183530122,0.102170229,-0.260902792,1.314360499,0.903082728,0.900442123,0.143444747,0.101681843,0.033632681,1.58661294,0.764196932,1.406437874,0.117751315,0.055901196
132,-0.231649458,-0.24789542,0.147656932,-0.231649458,1.174993634,0.751191735,0.600232065,0.169523805,0.107331544,-0.24789542,1.305762172,0.904206634,0.899011672,0.162079781,0.116149724,0.147656932,1.565236211,0.545859873,1.421351671,0.104906909,0.069731519
133,-0.22069189,-0.258466065,0.191726357,-0.22069189,1.166294217,0.73223424,0.598785877,0.160616055,0.100336492,-0.258466065,1.281889439,0.900623977,0.894499123,0.165138945,0.113022998,0.191726357,1.560402155,0.538266063,1.450934291,0.119292006,0.053972412
134,-0.208146721,-0.229996204,0.279062063,-0.208146721,1.192318559,0.719009459,0.607376695,0.150715202,0.078870982,-0.229996204,1.290713191,0.891953647,0.908804476,0.150429457,0.098032758,0.279062063,1.548930883,0.562287927,1.476349711,0.112121925,0.059969593
135,-0.211534113,-0.247439802,0.32543239,-0.211534113,1.197298288,0.718315065,0.625555694,0.162061244,0.083917484,-0.247439802,1.297439218,0.88768363,0.923817098,0.141002983,0.089465573,0.32543239,1.543135285,0.617962837,1.503461719,0.106269643,0.048852842
136,-0.220614254,-0.225531101,0.305256635,-0.220614254,1.199351311,0.702556193,0.636116147,0.153394282,0.10534282,-0.225531101,1.275430322,0.882772446,0.943202019,0.120662332,0.097345963,0.305256635,1.542762399,0.63762176,1.521148205,0.12209291,0.063971043
137,-0.135256439,-0.229208738,0.308531314,-0.135256439,1.159227729,0.581075013,0.635824502,0.144674435,0.070432499,-0.229208738,1.327688813,0.870546699,0.938671052,0.139505923,0.094389752,0.308531314,1.506345868,0.632814407,1.497625351,0.12947613,0.068980321
138,0.0429774,-0.154080689,0.30896318,0.0429774,1.160068512,0.326592207,0.652163863,0.132348463,0.086802587,-0.154080689,1.301088333,0.750521779,0.948052347,0.131708935,0.097590104,0.30896318,1.496891975,0.656680226,1.499704599,0.124768734,0.063205957
139,0.147883356,0.062598161,0.336983681,0.147883356,1.14614594,0.227229595,0.667200983,0.128991544,0.088228479,0.062598161,1.272458434,0.507487774,0.951853454,0.139520556,0.091232732,0.336983681,1.478235602,0.574564338,1.509813547,0.100203142,0.049917113
140,0.222499788,0.163302228,0.339919358,0.222499788,1.152474999,0.231239378,0.683078527,0.117149964,0.096826851,0.163302228,1.273505926,0.371645421,0.966453791,0.133575484,0.093270823,0.339919358,1.494520426,0.568789303,1.501640797,0.110827133,0.036067653
141,0.281505436,0.218019366,0.321214139,0.281505436,1.126185417,0.267414331,0.691889644,0.113060117,0.087850958,0.218019366,1.278219819,0.337116271,0.972226381,0.122343719,0.081979051,0.321214139,1.47753644,0.512395263,1.508240104,0.113228671,0.050750781
142,0.310307056,0.290298522,0.304621518,0.310307056,1.142177343,0.255062252,0.697109997,0.132403508,0.108081654,0.290298522,1.232293367,0.399597615,0.975788653,0.124138162,0.096029475,0.304621518,1.471380234,0.569747508,1.478685021,0.097195521,0.0603127
143,0.290091515,0.295148104,0.350207239,0.290091515,1.131299973,0.278425962,0.705142021,0.097437248,0.089703873,0.295148104,1.263022184,0.39833802,0.980543911,0.104525186,0.087128162,0.350207239,1.454711199,0.625188231,1.464697719,0.127130151,0.041132379
144,0.297976762,0.297088683,0.365700781,0.297976762,1.123538017,0.250894666,0.711326838,0.105071887,0.106942639,0.297088683,1.254385114,0.410268158,0.993653834,0.114234254,0.079641774,0.365700781,1.459359527,0.631302774,1.484300494,0.102754243,0.061728802
145,0.311874002,0.311015129,0.361722052,0.311874002,1.13317728,0.276448816,0.713140488,0.096333496,0.066960096,0.311015129,1.247612357,0.402025938,0.999873936,0.102431774,0.08979018,0.361722052,1.43554616,0.553187311,1.473946929,0.117508888,0.065351933
146,0.303016573,0.297166586,0.359323293,0.303016573,1.12618053,0.227695554,0.705655873,0.094117239,0.080125868,0.297166586,1.251925826,0.459899485,1.001210332,0.119854823,0.083270058,0.359323293,1.465928435,0.562765479,1.462806702,0.101429157,0.061202552
147,0.324058473,0.281450748,0.374753535,0.324058473,1.132100582,0.189531341,0.717814744,0.0903515,0.071812153,0.281450748,1.244998693,0.379893839,1.006352186,0.1064661,0.072494686,0.374753535,1.440417409,0.641862035,1.437932253,0.113988906,0.062028985
148,0.307400227,0.281131953,0.307788014,0.307400227,1.153794169,0.187029973,0.734469712,0.086145759,0.078396127,0.281131953,1.231086135,0.354440928,1.018465638,0.101545252,0.07757856,0.307788014,1.448903322,0.633106112,1.432142973,0.093617082,0.065030292
149,0.344356567,0.319680244,0.328738391,0.344356567,1.130985856,0.230477512,0.714315057,0.098299555,0.067342296,0.319680244,1.248271346,0.321795583,0.996141493,0.104152977,0.07946144,0.328738391,1.455447793,0.505995154,1.420464516,0.103470847,0.065701231
150,0.331317842,0.323629618,0.356780499,0.331317842,1.134218216,0.271874845,0.720153093,0.083771005,0.083013162,0.323629618,1.280241609,0.367934376,0.99814564,0.097755596,0.072640568,0.356780499,1.451363087,0.60902983,1.398883224,0.116720058,0.048706312
151,0.359909534,0.331783772,0.345956236,0.359909534,1.160938263,0.271363288,0.717355669,0.082362711,0.076016441,0.331783772,1.260559797,0.416763455,0.995496452,0.105106957,0.08045727,0.345956236,1.455972195,0.708667636,1.388640642,0.106907308,0.063752741
152,0.334712416,0.327610791,0.377994776,0.334712416,1.154010773,0.218372077,0.731006265,0.074933372,0.093987137,0.327610791,1.244933248,0.398910522,0.987129629,0.100527182,0.087059334,0.377994776,1.485070705,0.545170963,1.391083956,0.11578773,0.059413072
153,0.379773617,0.334506601,0.407040954,0.379773617,1.16263485,0.239498556,0.71659255,0.080330297,0.072138071,0.334506601,1.266591191,0.363781095,1.009787321,0.101307489,0.083344117,0.407040954,1.52758348,0.640764892,1.3549788,0.123926327,0.071678802
154,0.349941522,0.351825267,0.305203289,0.349941522,1.173741341,0.29739362,0.719041169,0.089168176,0.067052841,0.351825267,1.267923355,0.38190335,0.995771825,0.087923966,0.076213703,0.305203289,1.523069263,0.746920705,1.357137918,0.107089311,0.05529302
155,0.333829671,0.38227284,0.385240763,0.333829671,1.178326488,0.252939582,0.713968337,0.057119817,0.070621893,0.38227284,1.261208415,0.424278557,1.003450274,0.087283716,0.079579204,0.385240763,1.545094848,0.611972809,1.358240128,0.094656609,0.0731709
156,0.391986758,0.319183558,0.352988243,0.391986758,1.213903427,0.210678756,0.719842136,0.067011677,0.07393688,0.319183558,1.300206065,0.438586533,1.009546518,0.083593071,0.096994936,0.352988243,1.536674976,0.694778323,1.319046259,0.093875393,0.074232355
157,0.383297622,0.378096938,0.305822492,0.383297622,1.194783688,0.301209927,0.719428897,0.086250521,0.073418826,0.378096938,1.297314167,0.335199565,1.004214168,0.076796666,0.097944692,0.305822492,1.576132298,0.783693492,1.353120089,0.05794926,0.054713894
158,0.380726874,0.371614277,0.448532552,0.380726874,1.22116673,0.293875098,0.72749275,0.074229747,0.067907244,0.371614277,1.303567886,0.411788017,0.981404722,0.077750102,0.088454053,0.448532552,1.585557461,0.631937206,1.310992837,0.068731815,0.064512476
159,0.378507257,0.319870651,0.333054125,0.378507257,1.230490923,0.239454582,0.714336574,0.096603721,0.070186868,0.319870651,1.343126178,0.451917678,0.980342329,0.085356548,0.075653434,0.333054125,1.584627867,0.783587217,1.27844286,0.098221354,0.080715746
160,0.338015378,0.360775113,0.348732114,0.338015378,1.218722343,0.345507622,0.736264884,0.069804497,0.078407928,0.360775113,1.348004222,0.378143698,0.984226525,0.081987895,0.092126876,0.348732114,1.615013838,0.71511215,1.303457737,0.032711577,0.076377586
161,0.417058527,0.358171999,0.411349237,0.417058527,1.257216573,0.339694738,0.723004878,0.082775399,0.080241248,0.358171999,1.382446647,0.484281301,0.964474022,0.093399003,0.096706703,0.411349237,1.609101295,0.658005297,1.274003029,0.099462286,0.066885978
162,0.365025669,0.344701648,0.281531483,0.365025669,1.225355387,0.306130022,0.7208215,0.086464964,0.084681913,0.344701648,1.419558167,0.448410004,0.969393551,0.067618094,0.087573275,0.281531483,1.656528831,0.866709828,1.268529654,0.04881905,0.075098887
163,0.323732555,0.448800594,0.387177855,0.323732555,1.241045713,0.424035162,0.709645689,0.071672633,0.100415766,0.448800594,1.3980335,0.42687127,0.964784145,0.085418582,0.07160373,0.387177855,1.663905025,0.702322483,1.286407828,0.040160157,0.094349444
164,0.373252034,0.311993361,0.369338691,0.373252034,1.262254238,0.308266759,0.710676193,0.068387546,0.098127052,0.311993361,1.391581059,0.546750963,0.945150673,0.085746571,0.101191625,0.369338691,1.626975536,0.785027623,1.215867281,0.067449726,0.082468584
165,0.395657897,0.351747572,0.328938961,0.395657897,1.226907611,0.344701231,0.694211602,0.074943446,0.097164884,0.351747572,1.430018306,0.45910114,0.953193486,0.072572924,0.0822265,0.328938961,1.698293924,0.864336014,1.271852374,0.04269588,0.09170115
166,0.359038234,0.439934134,0.450917304,0.359038234,1.267028093,0.422394633,0.70176512,0.053110391,0.090702996,0.439934134,1.410808206,0.524317384,0.939439118,0.090755716,0.109156549,0.450917304,1.622526407,0.668420434,1.225378275,0.066287071,0.09575209
167,0.371185482,0.311471254,0.310387731,0.371185482,1.279199719,0.31608972,0.704674184,0.066103593,0.090877205,0.311471254,1.446315408,0.599528015,0.922203124,0.087327287,0.087069854,0.310387731,1.677015066,0.915024996,1.215968966,0.058422759,0.09684211
168,0.336596042,0.436391413,0.296536863,0.336596042,1.273101807,0.431081653,0.694586992,0.063064538,0.085611477,0.436391413,1.428841591,0.465074629,0.914923787,0.075091064,0.090322703,0.296536863,1.696513653,0.810312808,1.236862302,0.0349373,0.086769328
169,0.319897979,0.342401683,0.433142424,0.319897979,1.297135592,0.461103529,0.696529448,0.048709676,0.10261865,0.342401683,1.413056612,0.540638089,0.883590102,0.118208051,0.092790857,0.433142424,1.645187974,0.730346799,1.194053888,0.068247013,0.081752881
170,0.385367066,0.281272173,0.237512514,0.385367066,1.277030587,0.406386852,0.684008241,0.053560525,0.079427257,0.281272173,1.475508928,0.600238681,0.900977671,0.055851065,0.078407258,0.237512514,1.682072639,0.956651926,1.201984525,0.040545911,0.063914388
171,0.342269957,0.401827455,0.426370889,0.342269957,1.296257973,0.496120512,0.671347678,0.046590723,0.078548178,0.401827455,1.45191586,0.4972516,0.880275309,0.093705364,0.09288843,0.426370889,1.687981963,0.754853249,1.19989562,0.048178881,0.084721372
172,0.359612137,0.340560019,0.413720489,0.359612137,1.310501337,0.374249399,0.675200462,0.045714013,0.089746162,0.340560019,1.441957474,0.624201834,0.864043653,0.081924215,0.095406219,0.413720489,1.680185318,0.837807119,1.151499391,0.080155447,0.065249771
173,0.348430812,0.370315105,0.287236452,0.348430812,1.306271911,0.427874565,0.67304951,0.046685673,0.093000114,0.370315105,1.483755231,0.520591438,0.862031639,0.085203938,0.086034462,0.287236452,1.703480244,0.948216319,1.186288834,0.019719716,0.05002242
174,0.34748286,0.36805734,0.411773354,0.34748286,1.332804561,0.536108971,0.66589123,0.034925997,0.089237824,0.36805734,1.444625378,0.561028063,0.841813087,0.099343807,0.105704829,0.411773354,1.700160503,0.792804718,1.138299465,0.038755402,0.065475672
175,0.369528085,0.301000863,0.317825347,0.369528085,1.318239927,0.400017798,0.656724632,0.03400505,0.07288003,0.301000863,1.494078636,0.676696599,0.850171685,0.076127663,0.091596782,0.317825347,1.688841224,0.985128462,1.116354823,0.052778229,0.06379813
176,0.364282727,0.40425235,0.331641078,0.364282727,1.345367074,0.522624016,0.659053564,0.038421825,0.090758219,0.40425235,1.462498546,0.552555621,0.826959312,0.077217862,0.092758372,0.331641078,1.738711357,0.850113153,1.143039823,0.020767704,0.065454483
177,0.383949876,0.426519454,0.427933037,0.383949876,1.345702767,0.504249394,0.649915755,0.031927254,0.073056802,0.426519454,1.474182487,0.652130902,0.805217206,0.085383788,0.101494998,0.427933037,1.687800765,0.834070206,1.103183627,0.081772737,0.074718282
178,0.40087989,0.351441681,0.269461095,0.40087989,1.356062531,0.446229964,0.633492589,0.024055541,0.090142205,0.351441681,1.493255615,0.628096342,0.820684433,0.064655706,0.080691755,0.269461095,1.722692728,1.010789514,1.110258698,0.023929169,0.065882415
179,0.358282804,0.412387192,0.389630586,0.358282804,1.37743485,0.581596076,0.646034539,0.030267632,0.098530307,0.412387192,1.499847293,0.561985135,0.806187451,0.064555459,0.094892934,0.389630586,1.735952616,0.814758122,1.106045485,0.037407763,0.072766706
180,0.352879792,0.297285259,0.348394096,0.352879792,1.370931387,0.46639365,0.620331287,0.035374612,0.099999622,0.297285259,1.484592557,0.711641252,0.803883255,0.074269898,0.090451822,0.348394096,1.735012054,0.955998838,1.0590446,0.059959829,0.080664173
181,0.339311033,0.338191122,0.279934883,0.339311033,1.352400661,0.490847498,0.608680367,0.014630927,0.087408826,0.338191122,1.512928247,0.588612914,0.813782275,0.074804559,0.098128691,0.279934883,1.754974842,0.997299492,1.099352837,0.022074144,0.081573457
182,0.366592348,0.355159789,0.461903065,0.366592348,1.399816871,0.588317752,0.604522824,0.038786627,0.101647839,0.355159789,1.502188325,0.641898096,0.789452136,0.075837478,0.086937234,0.461903065,1.744412899,0.843201637,1.057217479,0.051497191,0.079989046
183,0.393217385,0.354578316,0.322590023,0.393217385,1.414613485,0.465084702,0.608579159,0.014495071,0.085624039,0.354578316,1.512218356,0.777783453,0.784827471,0.070219181,0.092480898,0.322590023,1.754296541,1.054161906,1.026692152,0.050496481,0.091403857
184,0.374071747,0.39158079,0.444944531,0.374071747,1.402519464,0.590705514,0.625213981,0.017537821,0.093816116,0.39158079,1.528891444,0.618379056,0.778292,0.07824631,0.082146272,0.444944531,1.779445171,0.907014489,1.04569602,0.00975367,0.112163752
185,0.323650599,0.376818895,0.405997396,0.323650599,1.41939652,0.578285396,0.611428499,0.010656938,0.096038505,0.376818895,1.502558947,0.709554136,0.784785926,0.06877733,0.092055842,0.405997396,1.762359381,0.900374711,0.999058664,0.082243539,0.099858865
186,0.3132644,0.333501786,0.277930588,0.3132644,1.396187186,0.552101493,0.587193668,0.019020002,0.101595595,0.333501786,1.551960826,0.719825029,0.764829814,0.057113022,0.065188363,0.277930588,1.799602032,1.047226191,0.995721638,0.038728714,0.092554331
187,0.324760795,0.408372521,0.367208481,0.324760795,1.418183684,0.622029603,0.598660827,0.030527906,0.100738198,0.408372521,1.527744532,0.666942894,0.769892275,0.058929749,0.105039001,0.367208481,1.798681021,0.873876274,0.99258858,0.054947458,0.085652292
188,0.399982005,0.288630843,0.355425328,0.399982005,1.445961356,0.522845387,0.570618391,0.017783541,0.094283357,0.288630843,1.566956878,0.767552614,0.758113563,0.046709083,0.068221971,0.355425328,1.796328545,1.013489962,0.950444281,0.045959555,0.090704381
189,0.365466326,0.391506463,0.297771007,0.365466326,1.440884948,0.565667033,0.569210112,0.034386113,0.078543663,0.391506463,1.57559216,0.65748775,0.766118705,0.032491677,0.098044112,0.297771007,1.837155104,1.025173664,0.962022603,0.011234568,0.100213185
190,0.356957763,0.424192846,0.43313995,0.356957763,1.432840943,0.659067333,0.558270335,0.031404264,0.091981351,0.424192846,1.590182304,0.691944301,0.751376212,0.061704926,0.096345842,0.43313995,1.807712078,0.955828905,0.929703236,0.035900027,0.088674799
191,0.40458256,0.359598011,0.324000508,0.40458256,1.453312874,0.566127419,0.569391727,0.03262227,0.087695554,0.359598011,1.601737738,0.805233598,0.73205477,0.061553441,0.079943627,0.324000508,1.814784288,1.066254735,0.911175966,0.033882886,0.085029796
192,0.387559384,0.449269503,0.353460371,0.387559384,1.453917623,0.656313896,0.55222702,0.023911664,0.098141432,0.449269503,1.608487964,0.703719318,0.731851935,0.05064334,0.095265985,0.353460371,1.845691323,0.913725555,0.933077753,0.019483827,0.083520949
193,0.292706102,0.414373279,0.36240682,0.292706102,1.448367238,0.622828424,0.548601091,0.026020357,0.102908149,0.414373279,1.598597527,0.801344395,0.707407296,0.039908405,0.097429469,0.36240682,1.843545556,0.965179145,0.895095289,0.050006941,0.083617762
194,0.372876972,0.397526205,0.345604211,0.372876972,1.471463919,0.612891614,0.533777833,0.013552526,0.09125182,0.397526205,1.651571751,0.772832811,0.718153,0.049236469,0.100897178,0.345604211,1.862982273,1.099018216,0.881013572,0.030888226,0.085116461
195,0.35085696,0.443143219,0.419996679,0.35085696,1.440279245,0.724444509,0.518220663,0.006017061,0.088302895,0.443143219,1.621449351,0.704838157,0.709700644,0.045501344,0.103893489,0.419996679,1.869989157,0.934314907,0.872153521,0.035064295,0.092746511
196,0.350441307,0.430916131,0.364409924,0.350441307,1.480369925,0.614483356,0.530134857,-0.002220751,0.096016049,0.430916131,1.630411863,0.812061429,0.716715097,0.05175446,0.092512682,0.364409924,1.862055421,1.004957199,0.832153738,0.031948261,0.09199284
197,0.400377274,0.441886485,0.363655627,0.400377274,1.482999563,0.613551259,0.50630486,0.003667158,0.096958935,0.441886485,1.651712775,0.749725878,0.711093307,0.041892365,0.073010966,0.363655627,1.892824411,1.021200776,0.851819158,0.031281151,0.096938983
198,0.337944418,0.460922748,0.444450498,0.337944418,1.488836884,0.70953089,0.487488955,0.014639813,0.091080725,0.460922748,1.629645348,0.749391973,0.687896073,0.05615183,0.093548074,0.444450498,1.881661773,0.975244701,0.827630937,0.027655087,0.102690935
199,0.366097718,0.446422517,0.316509485,0.366097718,1.510123014,0.610049069,0.504384339,0.020005291,0.106112465,0.446422517,1.656996131,0.857704163,0.686957657,0.057495847,0.074094325,0.316509485,1.911128879,1.09472239,0.785586774,0.025573025,0.092603013
200,0.390571088,0.455964088,0.339341223,0.390571088,1.537476659,0.69360882,0.513916671,0.00728954,0.094645128,0.455964088,1.662160993,0.745573699,0.710328698,0.036413267,0.086743847,0.339341223,1.927040339,1.020550609,0.788487136,-0.001418337,0.092678651
201,0.354510367,0.462595284,0.372524679,0.354510367,1.506799221,0.692587674,0.504930735,0.003482977,0.107705176,0.462595284,1.657140732,0.788311183,0.687576532,0.055088788,0.072927222,0.372524679,1.93757534,1.035666466,0.767101884,0.021138135,0.089558139
202,0.379470468,0.446602404,0.30027321,0.379470468,1.499781489,0.644079983,0.49682948,0.021164779,0.106030941,0.446602404,1.691903949,0.857281029,0.682005525,0.044770084,0.062782079,0.30027321,1.965369344,1.114182949,0.763135791,-0.00042755,0.084680453
203,0.384245992,0.496667325,0.376462847,0.384245992,1.508057594,0.723393142,0.477512747,0.017763006,0.081730276,0.496667325,1.68578589,0.789980412,0.664584756,0.035023909,0.074242994,0.376462847,1.982198238,1.005273819,0.742471039,-0.000174052,0.093479082
204,0.326415956,0.490400493,0.33050561,0.326415956,1.515480399,0.638632178,0.479728729,0.013909247,0.09387143,0.490400493,1.69339323,0.817172527,0.650332212,0.030044742,0.075655147,0.33050561,1.943760037,1.0780375,0.738080323,0.017467938,0.087789536
205,0.349504858,0.468656331,0.309440255,0.349504858,1.511064887,0.686752141,0.462028295,-0.004382791,0.114359036,0.468656331,1.707894325,0.76212579,0.639941514,0.039538063,0.061302017,0.309440255,2.007606506,1.114336252,0.735216558,-0.000369518,0.081564412
206,0.311587095,0.435637921,0.351226985,0.311587095,1.517341971,0.770752072,0.459681004,0.004818903,0.108684823,0.435637921,1.671757698,0.789473474,0.62282747,0.049051769,0.071771696,0.351226985,1.990191579,1.029549241,0.722299755,-0.000491276,0.094727919
207,0.352077663,0.354906291,0.322950512,0.352077663,1.569000721,0.667267144,0.472784042,0.006730984,0.09889394,0.354906291,1.703210473,0.897697866,0.615929961,0.040167883,0.074555159,0.322950512,2.014583826,1.083394289,0.703146398,-0.004807174,0.084638342
208,0.361414015,0.453859836,0.333706141,0.361414015,1.532339215,0.732349277,0.443693429,-0.015950648,0.094758257,0.453859836,1.710309982,0.818427682,0.617150366,0.035906974,0.065983996,0.333706141,1.996321321,1.10416472,0.70008409,0.007326121,0.089540511
209,0.336526334,0.429485977,0.360513717,0.336526334,1.57523632,0.756259143,0.444000334,-0.031492099,0.082984596,0.429485977,1.721066475,0.898195267,0.612631857,0.047865152,0.058335986,0.360513717,2.034080029,1.091448426,0.694920838,-0.001829538,0.100721285
210,0.374419749,0.409978986,0.34621048,0.374419749,1.56532371,0.693678439,0.44916445,-0.010106822,0.087557778,0.409978986,1.737709761,0.90578568,0.60109067,0.021219425,0.07020551,0.34621048,2.045094967,1.030831695,0.659909785,0.011590429,0.099496976
211,0.305139035,0.421454817,0.319364071,0.305139035,1.586254001,0.735530496,0.441805422,-0.003716974,0.098775104,0.421454817,1.730736494,0.846645594,0.599313259,0.022217331,0.081818104,0.319364071,2.009143591,1.047860265,0.654230058,0.002909849,0.08425726
212,0.345195055,0.418563187,0.339405954,0.345195055,1.58750689,0.807197213,0.436383098,-0.013514947,0.089792728,0.418563187,1.744422197,0.903536022,0.585899472,0.032830589,0.056019593,0.339405954,2.015602112,1.122230411,0.652802646,0.007072059,0.101893887
213,0.360774636,0.354520202,0.316277146,0.360774636,1.568692803,0.794533432,0.43759805,-0.009003587,0.083727837,0.354520202,1.740205646,0.924019933,0.564092159,0.040153828,0.073263094,0.316277146,2.012868404,1.113979578,0.641841352,0.009821141,0.09097977
214,0.334068775,0.387406081,0.291066945,0.334068775,1.604240537,0.756060362,0.437519908,-0.011561215,0.09879458,0.387406081,1.74556613,0.887637079,0.561883986,0.034754563,0.077970937,0.291066945,2.013722658,1.165939808,0.639723659,0.03271823,0.095798165
215,0.342781901,0.381950498,0.287929326,0.342781901,1.607977629,0.776203632,0.431715012,-0.008183006,0.091541931,0.381950498,1.733007669,0.891915381,0.555500925,0.034325447,0.088328972,0.287929326,1.982542872,1.13549459,0.619516253,0.015933853,0.077677563
216,0.287587643,0.371014625,0.28224057,0.287587643,1.611214638,0.790832043,0.429585576,0.011384582,0.087897643,0.371014625,1.744515061,0.889484346,0.550794184,0.041253097,0.08982417,0.28224057,1.975275636,1.088073373,0.63781786,0.019648079,0.07984449
217,0.352409542,0.420245171,0.30855149,0.352409542,1.605341196,0.74190402,0.430100054,-0.001692183,0.081463695,0.420245171,1.747634292,0.901381433,0.543629229,0.038181175,0.087315023,0.30855149,1.970265508,1.11736834,0.612188339,0.02833602,0.075824827
218,0.315743953,0.369893432,0.252577364,0.315743953,1.616122603,0.793954492,0.426460594,-0.025386214,0.073195666,0.369893432,1.751832485,0.891941965,0.543016553,0.043941524,0.077176988,0.252577364,1.987292171,1.114755869,0.622496605,0.037204221,0.08602035
219,0.334411532,0.376260191,0.276660085,0.334411532,1.619490862,0.769365728,0.416714013,-0.011652395,0.064261198,0.376260191,1.764101982,0.871964276,0.533341408,0.050639,0.097754881,0.276660085,1.972047687,1.106019974,0.611831248,0.018601328,0.07563664
220,0.317027509,0.385140926,0.262702495,0.317027509,1.613558769,0.844045877,0.41275835,-0.002719633,0.065630093,0.385140926,1.771007776,0.966078877,0.518909574,0.050857361,0.084597126,0.262702495,1.945039272,1.130062699,0.625106335,0.047014326,0.093145087
221,0.301571697,0.387464225,0.24597168,0.301571697,1.626607776,0.856976211,0.409695864,-0.028205398,0.078258663,0.387464225,1.75206542,0.951568484,0.528594434,0.04518953,0.082421362,0.24597168,1.95313108,1.142014861,0.609871507,0.051038392,0.067969918
222,0.312797576,0.361443758,0.206140339,0.312797576,1.623594761,0.813912034,0.410485059,-0.005648227,0.084801674,0.361443758,1.768823743,0.97991693,0.523399472,0.062119354,0.079630211,0.206140339,1.955134511,1.129401565,0.603202879,0.032259393,0.078671664
223,0.274991721,0.357487291,0.212163046,0.274991721,1.616230726,0.813296795,0.404883385,-0.003956504,0.08122991,0.357487291,1.764213562,0.969242573,0.508434534,0.046144005,0.081414491,0.212163046,1.867001653,1.186793447,0.607583046,0.048818592,0.090446606
224,0.279584229,0.348894805,0.237886474,0.279584229,1.603470325,0.842907667,0.420083731,-0.0048973,0.091682911,0.348894805,1.758643508,0.917136133,0.505034685,0.053336583,0.082630903,0.237886474,1.87170887,1.124911904,0.607672453,0.045520082,0.080601916
225,0.259500086,0.351207435,0.257444143,0.259500086,1.601432204,0.813103437,0.405470729,0.000592276,0.083095491,0.351207435,1.76619494,0.958581924,0.508113563,0.045745626,0.080452368,0.257444143,1.860718846,1.110351324,0.607552409,0.052283626,0.077936187
226,0.253002912,0.331858397,0.255581975,0.253002912,1.616747975,0.845273018,0.406681776,-0.004410565,0.084166706,0.331858397,1.764449477,0.930299819,0.52013576,0.045954172,0.093350992,0.255581975,1.849095702,1.098443627,0.598838747,0.039567623,0.091120049
227,0.277240783,0.360462874,0.247201234,0.277240783,1.615686655,0.829900444,0.392234564,0.003514765,0.087728396,0.360462874,1.773261905,0.939600945,0.518347859,0.017595058,0.082740992,0.247201234,1.838247299,1.109112144,0.590475857,0.064639941,0.067768157
228,0.258158773,0.347916454,0.258668661,0.258158773,1.605038404,0.83107543,0.400443345,0.001575287,0.090293333,0.347916454,1.784592986,0.966713667,0.505623519,0.035948534,0.099993899,0.258668661,1.826743484,1.122667909,0.597550511,0.057214126,0.096434191
229,0.177357808,0.325865149,0.255621016,0.177357808,1.610834599,0.866258562,0.401583523,0.006598631,0.087976098,0.325865149,1.778813958,0.948246837,0.520686507,0.036046285,0.083626598,0.255621016,1.821564555,1.12199378,0.599775195,0.057648499,0.087823734
230,0.214715973,0.279181033,0.237669647,0.214715973,1.538316846,0.86860317,0.394543588,0.007100784,0.094062239,0.279181033,1.781814098,0.97778666,0.512478828,0.03488363,0.089850545,0.237669647,1.869665504,1.109735489,0.612474144,0.054909185,0.084676489
231,0.280877173,0.268499434,0.244945079,0.280877173,1.516539454,0.823894322,0.407529354,-0.004879521,0.089048147,0.268499434,1.706699371,1.002670288,0.51219368,0.036317334,0.096084937,0.244945079,2.068337917,1.030579448,0.805290341,0.066173911,0.087749392
232,0.276755303,0.309006065,0.249280974,0.276755303,1.529327393,0.806723714,0.39921689,0.007991488,0.095981374,0.309006065,1.708751321,0.960610747,0.49959448,0.04400555,0.072851628,0.249280974,2.155963421,1.052161694,0.977040768,0.063975751,0.074630395
233,0.254664034,0.327651083,0.229680285,0.254664034,1.525617003,0.812513471,0.387587875,0.00432363,0.080336571,0.327651083,1.720646739,0.944755137,0.503205895,0.032970637,0.088697806,0.229680285,2.092212915,1.081171274,0.924900115,0.082360335,0.079259396
234,0.238769203,0.339671969,0.206189156,0.238769203,1.531199574,0.834992528,0.399377733,0.018081276,0.094710663,0.339671969,1.724234581,0.942386985,0.501090407,0.06584473,0.080857038,0.206189156,2.082855701,1.059861064,1.05196023,0.087483943,0.07913956
235,0.234731644,0.317679554,0.197829708,0.234731644,1.502927899,0.830844343,0.389721394,0.001198789,0.089251161,0.317679554,1.725973129,0.943032384,0.500142097,0.054592997,0.073220789,0.197829708,2.06251502,1.104295254,1.064119816,0.101726905,0.076846167
236,0.256238878,0.296249926,0.161084726,0.256238878,1.513252854,0.837658942,0.404855311,0.023689551,0.078399539,0.296249926,1.704029441,0.968256831,0.493992835,0.057391651,0.078901708,0.161084726,2.142761946,1.024992228,1.058311582,0.097825833,0.089556798
237,0.250123203,0.298217863,0.119998664,0.250123203,1.596259356,0.799761236,0.437964469,0.011308188,0.084477976,0.298217863,1.71408844,0.96480298,0.499826103,0.039203919,0.071578816,0.119998664,2.182579994,1.058250308,1.031573057,0.115286544,0.10027878
238,0.231127605,0.266793758,0.071605988,0.231127605,1.671645045,0.77440083,0.691036344,0.024336822,0.082341,0.266793758,1.779483318,0.935516119,0.528651297,0.049555011,0.055331822,0.071605988,2.181396484,1.021445036,1.036865473,0.149610445,0.076651812
239,0.22622107,0.279787064,0.038368106,0.22622107,1.675008774,0.764832258,0.751104951,0.010362741,0.100913823,0.279787064,1.829151988,0.896559954,0.757501364,0.033954151,0.071099535,0.038368106,2.1943295,1.12523067,1.067091465,0.147083998,0.074089691
240,0.188752055,0.241035581,0.045375615,0.188752055,1.700272918,0.777897358,0.790418744,0.029135495,0.066915929,0.241035581,1.870565176,0.878767729,0.868123531,0.039621506,0.058411162,0.045375615,2.166621208,1.088500857,1.128703833,0.149776161,0.040780898
241,0.187233582,0.215374261,-0.011067258,0.187233582,1.658538461,0.780391753,0.816799581,0.05779634,0.077721268,0.215374261,1.885028243,0.898527503,0.852784753,0.081029259,0.077774227,-0.011067258,2.153573513,1.056527376,1.082694888,0.154291719,0.055633496
242,0.176588178,0.215456843,-0.005182918,0.176588178,1.642048955,0.745312095,0.831889033,0.097264253,0.084834054,0.215456843,1.87656188,0.928267658,0.958672523,0.087875418,0.075206086,-0.005182918,2.04276967,1.075355649,0.998602271,0.136849999,0.046682741
243,0.130975962,0.162806705,-0.028195305,0.130975962,1.797485828,0.7272228,0.862572491,0.142881855,0.073055089,0.162806705,1.764556527,0.915248394,0.930996835,0.12527439,0.075998843,-0.028195305,2.115025997,1.057891488,1.058387637,0.114238545,0.051537123
244,0.067339674,0.146941602,-0.020883977,0.067339674,1.73266387,0.701608658,0.853803039,0.175091311,0.081516862,0.146941602,1.949773908,0.861217022,0.928464651,0.158327669,0.07186912,-0.020883977,2.046519995,1.018640637,1.057993412,0.148908243,0.037638556
245,0.042258173,0.098449677,-0.080363095,0.042258173,1.819011211,0.749134064,0.777237177,0.168101788,0.068707526,0.098449677,1.939185023,0.863622308,0.967232943,0.153202355,0.055551719,-0.080363095,2.206240416,1.061101317,1.070643067,0.127554268,0.044781696
246,0.037437905,0.065513149,-0.059031356,0.037437905,1.780123115,0.831269741,0.818069756,0.161097884,0.067859843,0.065513149,1.961416006,0.869726241,0.903991222,0.165766358,0.067145437,-0.059031356,2.128326416,1.063279986,1.028350353,0.139284939,0.022829887
247,0.001789084,0.023946466,-0.038314886,0.001789084,1.766081452,0.780021846,0.866420388,0.169830531,0.070763975,0.023946466,1.963318944,0.907462835,0.965309083,0.154887542,0.04296821,-0.038314886,2.095279455,1.061102033,1.093360662,0.12281467,0.015530419
248,-0.027792139,-0.036297616,-0.071450315,-0.027792139,1.694305897,0.718335927,0.821950436,0.156863987,0.058404636,-0.036297616,1.916010618,0.896277606,1.010530949,0.135630548,0.039664488,-0.071450315,2.046697617,1.076710463,1.068771243,0.153731376,0.036658552
249,-0.05835963,-0.074659355,-0.078830913,-0.05835963,1.759099245,0.766582489,0.831915736,0.16806823,0.049095239,-0.074659355,1.890750527,0.868708313,0.933408022,0.168720573,0.030367535,-0.078830913,2.049901962,1.104982972,1.030526161,0.111938156,0.039345194
250,-0.071193948,-0.102442488,-0.082684867,-0.071193948,1.694610596,0.766112685,0.830518901,0.168099076,0.044758495,-0.102442488,1.880649447,0.916058779,0.932521105,0.173099011,0.036532428,-0.082684867,1.999416828,1.067985058,1.111362338,0.141245827,0.043174487
251,-0.028222933,-0.103773043,-0.08366251,-0.028222933,1.630090356,0.815093517,0.870434165,0.153226301,0.044109922,-0.103773043,1.800020576,0.879391253,0.947232902,0.172307119,0.02145515,-0.08366251,2.127731323,1.1157341,1.087009549,0.134313673,0.030110661
252,-0.07215488,-0.091277704,-0.064505868,-0.07215488,1.809190512,0.753178596,0.865634382,0.157047495,0.034752678,-0.091277704,1.859511852,0.884963453,0.991025627,0.150352344,0.007602166,-0.064505868,2.123728991,1.074877977,1.133165717,0.149419114,0.046568241
253,-0.054215688,-0.13113752,-0.07941246,-0.054215688,1.697899461,0.738299847,0.801795959,0.165354997,0.026786458,-0.13113752,2.003421783,0.919815302,0.967775285,0.144542202,0.011239007,-0.07941246,2.115809441,1.111959577,1.014986396,0.104438081,0.035872441
254,-0.075372033,-0.110295385,-0.097752839,-0.075372033,1.817316055,0.766153932,0.896549225,0.161375165,0.014397521,-0.110295385,1.912549019,0.890314698,0.928301454,0.16721347,0.004382867,-0.097752839,2.076074123,1.120037079,1.124589086,0.116155639,0.053818416
255,-0.082007781,-0.129256755,-0.095447876,-0.082007781,1.684278965,0.78086853,0.827697337,0.168101594,0.023648653,-0.129256755,1.994461179,0.891554117,1.012405872,0.166186243,0.018505599,-0.095447876,2.044705629,1.13138628,1.085774541,0.156432584,0.063523725
256,-0.079605684,-0.137704313,-0.100069314,-0.079605684,1.733750343,0.782808959,0.85731101,0.171920776,0.02104402,-0.137704313,1.826083899,0.8962183,0.882096112,0.160587624,0.003396977,-0.100069314,2.056004763,1.147791147,1.085684299,0.115501642,0.100172117
257,-0.092734724,-0.135314226,-0.09452533,-0.092734724,1.666856527,0.735826015,0.926577032,0.158505037,0.03224482,-0.135314226,1.880833864,0.887130201,0.969766557,0.132653549,0.001290169,-0.09452533,2.044775963,1.149718523,1.143207431,0.132130444,0.115293652
258,-0.098426916,-0.117858976,-0.084127985,-0.098426916,1.726480484,0.770165324,0.834106266,0.189508095,0.026812013,-0.117858976,1.785031915,0.914147496,1.05089283,0.151941806,0.008909319,-0.084127985,2.226597309,1.1846205,1.037180185,0.151930258,0.133773685
259,-0.079514198,-0.128857732,-0.093947418,-0.079514198,1.724112153,0.788557589,0.966098368,0.160664752,0.038088139,-0.128857732,1.938924789,0.88793081,0.976024747,0.164310068,0.005914491,-0.093947418,2.078589916,1.18006742,1.12790668,0.111658499,0.119265318
260,-0.102942839,-0.15386042,-0.120499074,-0.102942839,1.711827278,0.775387049,0.78699249,0.16818215,0.055845629,-0.15386042,1.907943726,0.935970545,1.060687423,0.147054583,0.046211336,-0.120499074,2.160684347,1.16219461,1.129652858,0.130995661,0.128788307
261,-0.077416234,-0.165763304,-0.091351248,-0.077416234,1.660870433,0.812886894,0.903730392,0.172725514,0.073542058,-0.165763304,1.891485333,0.943872094,0.920012236,0.160531715,0.043485131,-0.091351248,2.016088009,1.176203251,1.08749783,0.151310965,0.14300777
262,-0.107568294,-0.153737485,-0.103072226,-0.107568294,1.605177283,0.849334896,0.878812492,0.158790678,0.070538476,-0.153737485,1.888733625,0.939225852,0.986929655,0.149712354,0.062566027,-0.103072226,2.105869293,1.206311941,1.099427342,0.140772387,0.154056847
263,-0.086703926,-0.126189455,-0.116343409,-0.086703926,1.72492218,0.801744282,0.90354979,0.154672444,0.09466137,-0.126189455,1.821526527,0.952408612,0.984964848,0.171898276,0.067312792,-0.116343409,2.021940231,1.19880271,1.065502405,0.145602494,0.14429599
264,-0.091181181,-0.1567384,-0.09699136,-0.091181181,1.732247949,0.855045438,0.927728176,0.176727444,0.092165262,-0.1567384,1.860244036,0.967435598,0.934233844,0.149816588,0.095609009,-0.09699136,1.966230989,1.152648091,1.090699196,0.169662446,0.143259406
265,-0.099750645,-0.164316028,-0.103343435,-0.099750645,1.717067838,0.826547503,0.790976644,0.165611178,0.11908567,-0.164316028,1.812625885,0.959072709,1.004653692,0.152121037,0.096986309,-0.103343435,2.034522057,1.202327371,1.172429204,0.108959638,0.108851127
266,-0.083764225,-0.156022668,-0.114111766,-0.083764225,1.805423021,0.860779047,0.890128434,0.154365569,0.12516053,-0.156022668,1.966198325,0.950848103,0.940686524,0.155266374,0.097410589,-0.114111766,2.125144243,1.189961433,1.082581758,0.144924715,0.065013058
267,-0.10741286,-0.151857495,-0.112664223,-0.10741286,1.616270065,0.846489668,0.845515132,0.163721755,0.139171034,-0.151857495,1.88520968,0.98968178,1.027912855,0.156119093,0.102184474,-0.112664223,2.092535019,1.226509094,1.101863861,0.142006114,0.0476906
268,-0.145461977,-0.15832907,-0.127815679,-0.145461977,1.716923952,0.841699362,0.9021402,0.173129335,0.141120523,-0.15832907,1.868251443,0.958253145,1.008573055,0.150415719,0.12729308,-0.127815679,2.194556475,1.271567941,1.114568949,0.150290072,0.040167771
269,-0.128219903,-0.157382116,-0.105105139,-0.128219903,1.631229281,0.871787429,0.794125021,0.162535638,0.145943731,-0.157382116,1.827233911,0.978175938,0.98812449,0.153086439,0.123232782,-0.105105139,2.077590704,1.231349111,1.016607404,0.136495233,0.038367055
270,-0.094104454,-0.165115714,-0.133525103,-0.094104454,1.655498266,0.884021819,0.849220991,0.179000586,0.160556346,-0.165115714,1.87070179,0.964172184,0.999337256,0.169165522,0.148969799,-0.133525103,2.125083685,1.25468874,1.128619909,0.138344899,0.061543904
271,-0.10653539,-0.179157704,-0.112573653,-0.10653539,1.651161671,0.861028373,0.86388731,0.156421334,0.136813998,-0.179157704,1.77518332,1.011145234,0.924619794,0.161451742,0.129163593,-0.112573653,2.014449596,1.274563909,1.095386744,0.158870459,0.07871858
272,-0.128293499,-0.158646256,-0.125815138,-0.128293499,1.670613408,0.851887643,0.849378765,0.174007028,0.137366802,-0.158646256,1.78483963,1.012803674,0.99022758,0.179834068,0.142432064,-0.125815138,2.066517115,1.253836751,1.080142856,0.135611698,0.094603173
273,-0.104566991,-0.152140379,-0.128167108,-0.104566991,1.72849381,0.88903749,0.866062999,0.172605753,0.129948527,-0.152140379,1.852370858,1.041474342,0.941057503,0.152935222,0.129012972,-0.128167108,2.044467211,1.212841392,1.088902354,0.120902754,0.087306418
274,-0.114746258,-0.160130203,-0.109827682,-0.114746258,1.718386412,0.908324838,0.868714094,0.18197614,0.103181951,-0.160130203,1.873883605,1.006479263,0.911650479,0.179898441,0.130191892,-0.109827682,2.04282403,1.243355751,1.081616282,0.141067654,0.096598171
275,-0.120154321,-0.177289844,-0.139281183,-0.120154321,1.744768023,0.868987858,0.811554909,0.172188461,0.113549866,-0.177289844,1.897127032,1.05109024,1.040216327,0.149697423,0.138290524,-0.139281183,2.112720728,1.251368046,1.139417171,0.098172933,0.119420193
276,-0.119994603,-0.158622995,-0.131467566,-0.119994603,1.746286154,0.901451051,0.904627025,0.158815652,0.117086299,-0.158622995,1.954559326,0.987199903,0.94280839,0.164371699,0.139561355,-0.131467566,1.996563315,1.199476838,1.079890013,0.142172933,0.107873075
277,-0.133065045,-0.188988268,-0.146250471,-0.133065045,1.779017448,0.888602734,0.905643523,0.162738502,0.107931145,-0.188988268,1.896588087,0.996271729,0.987172663,0.173400611,0.113742821,-0.146250471,2.087862968,1.271861553,1.047313094,0.135241836,0.120601825
278,-0.137272552,-0.176937163,-0.174749002,-0.137272552,1.637490749,0.899444997,0.86763835,0.152974769,0.098755769,-0.176937163,1.892474174,1.033226848,1.038211942,0.168721601,0.108776085,-0.174749002,2.090309858,1.229360104,1.107745171,0.130823135,0.119664051
279,-0.134172842,-0.199263841,-0.155009687,-0.134172842,1.710681319,0.918617427,0.970057189,0.165426642,0.088343285,-0.199263841,1.748464584,1.044310451,0.920368552,0.147524312,0.119507782,-0.155009687,2.05517149,1.296132445,1.077534914,0.120427042,0.104525253
280,-0.142884508,-0.187644735,-0.163840786,-0.142884508,1.577538252,0.869611382,0.768749952,0.176942512,0.093992554,-0.187644735,1.854035854,1.064262748,0.982358456,0.148466006,0.105059035,-0.163840786,2.155130148,1.21830523,1.104434133,0.130953074,0.124746561
281,-0.129413158,-0.173846021,-0.165545106,-0.129413158,1.735909462,0.9094069,0.863942981,0.162993938,0.120503806,-0.173846021,1.744893789,0.989270151,0.942409754,0.1503997,0.120229103,-0.165545106,2.047280312,1.27249074,1.120732903,0.127264589,0.125021741
282,-0.145063803,-0.150878862,-0.152755678,-0.145063803,1.623103976,0.887776375,0.901737094,0.154967889,0.11540287,-0.150878862,1.819218874,1.063864112,0.918377876,0.196614757,0.109643303,-0.152755678,2.192448378,1.296685576,1.071509123,0.13742727,0.135364681
283,-0.136562303,-0.168280244,-0.144764096,-0.136562303,1.634395838,0.97298342,0.859862924,0.16750446,0.118141793,-0.168280244,1.838958979,1.050717235,0.97264266,0.135356471,0.115985937,-0.144764096,2.30312705,1.232444644,1.108510017,0.161428511,0.113034502
284,-0.15019621,-0.201486349,-0.149136722,-0.15019621,1.691668868,0.898657501,0.856857598,0.158908799,0.113985382,-0.201486349,1.721639872,1.050579786,1.000843525,0.151405156,0.124829106,-0.149136722,2.204960346,1.298593044,1.066414237,0.149449885,0.128610298
285,-0.152110115,-0.175551414,-0.173467055,-0.152110115,1.62196672,0.882554591,0.88250035,0.150470629,0.117448829,-0.175551414,1.857486963,1.070598722,0.997467935,0.157351702,0.117454909,-0.173467055,2.203845739,1.258056164,1.05022192,0.119489208,0.119385108
286,-0.155172586,-0.191865474,-0.156621218,-0.155172586,1.653346181,0.928675056,0.845128894,0.162460908,0.114951923,-0.191865474,1.783931971,0.999934256,0.957080722,0.16812411,0.122849412,-0.156621218,2.219684362,1.252164483,1.050507307,0.116349161,0.108542934
287,-0.169098482,-0.190873563,-0.134294301,-0.169098482,1.63151443,0.894015372,0.857910395,0.168659687,0.125273705,-0.190873563,1.806656122,1.086185455,0.93547833,0.158030346,0.116399385,-0.134294301,2.280121326,1.28815937,1.115108967,0.13742885,0.107101694
288,-0.162737191,-0.200604945,-0.158294261,-0.162737191,1.611007452,0.97521615,0.910008252,0.171312928,0.122254953,-0.200604945,1.783851147,0.987526,0.92530942,0.163037002,0.132574692,-0.158294261,2.391950607,1.28552413,1.128988624,0.12131492,0.110858276
289,-0.140047878,-0.213275194,-0.148573369,-0.140047878,1.709382057,0.887192726,0.900739551,0.171395019,0.114420742,-0.213275194,1.747323275,1.087519765,0.971268713,0.169370383,0.122911707,-0.148573369,2.292580128,1.185553193,1.036940455,0.141997308,0.118168265
290,-0.160225958,-0.198789299,-0.167631105,-0.160225958,1.719618082,0.888971686,0.818474889,0.159953862,0.13029182,-0.198789299,1.819632411,1.049389482,0.929961681,0.12870492,0.119994238,-0.167631105,2.265075445,1.321305037,1.090753198,0.117308103,0.120235428
291,-0.143587321,-0.200885534,-0.159771219,-0.143587321,1.753461123,0.971565127,0.868449688,0.160673112,0.129562661,-0.200885534,1.852035522,1.03134501,0.944131613,0.167222336,0.124796152,-0.159771219,2.113513231,1.261046886,1.091427088,0.114262722,0.135854438
292,-0.153196543,-0.200216159,-0.132631347,-0.153196543,1.722370505,0.872302592,0.785366774,0.141978055,0.118923888,-0.200216159,1.850762486,1.120319843,0.979786098,0.15336749,0.138020694,-0.132631347,1.847541332,1.246162653,1.070266843,0.145934135,0.138496026
293,-0.165867478,-0.194020584,-0.156069905,-0.165867478,1.705734611,0.953766108,0.857842743,0.145319581,0.102858484,-0.194020584,1.847470284,1.028169036,0.897957444,0.14975296,0.106689692,-0.156069905,1.511176229,1.298806429,1.100763559,0.10260883,0.139332741
294,-0.173373222,-0.20014815,-0.145376816,-0.173373222,1.833359838,0.988475502,0.859922707,0.162350893,0.106896222,-0.20014815,1.864600539,1.037898302,0.965879083,0.148297638,0.123415515,-0.145376816,1.222349882,1.238749981,1.131566286,0.111963548,0.117359504
295,-0.179121733,-0.217920855,-0.180250242,-0.179121733,1.789888382,0.865626156,0.831671655,0.165743202,0.107599035,-0.217920855,1.94036901,1.103334069,0.974499583,0.1368635,0.101938441,-0.180250242,1.188990235,1.21524334,1.04714036,0.102899462,0.124044836
296,-0.163212001,-0.187702969,-0.144336313,-0.163212001,1.76762867,0.930505693,0.88989985,0.142799437,0.109034434,-0.187702969,1.951187611,1.060816526,0.961217105,0.149863005,0.121382728,-0.144336313,1.185915947,1.388689995,1.110662103,0.114996359,0.091274962
297,-0.158174828,-0.19517003,-0.169699088,-0.158174828,1.67150104,0.97107017,0.854814947,0.158674002,0.12441498,-0.19517003,1.911176682,1.025325656,0.948185682,0.165971339,0.118835881,-0.169699088,1.197241902,1.278725505,1.078120947,0.110424191,0.115837529
298,-0.162301823,-0.188808039,-0.141262755,-0.162301823,1.574287534,0.865185738,0.791741192,0.158337295,0.142621711,-0.188808039,1.818903446,1.126109958,0.928817034,0.155235738,0.128863052,-0.141262755,1.17103982,1.244288683,0.995315671,0.143164173,0.123121873
299,-0.176285222,-0.20584859,-0.182580814,-0.176285222,1.322096467,0.972370446,0.865919471,0.161034077,0.142986745,-0.20584859,1.772918105,1.035755754,0.927877903,0.161634386,0.127830729,-0.182580814,1.15059042,1.32095933,1.063803434,0.121682823,0.125099853
300,-0.182192996,-0.207984164,-0.18524228,-0.182192996,1.11407268,0.990481257,0.885873556,0.165313751,0.13170211,-0.207984164,1.539016604,1.086819291,0.966151714,0.156804919,0.135658801,-0.18524228,1.109236598,1.332143903,1.100533009,0.088645332,0.141117319
301,-0.167810425,-0.204405129,-0.170718938,-0.167810425,1.015307546,0.880263567,0.837531328,0.162978768,0.116196871,-0.204405129,1.265708089,1.089362383,1.02416563,0.128204167,0.153028607,-0.170718938,1.206300139,1.244690537,1.076368332,0.109795481,0.138110712
302,-0.168240413,-0.113479577,-0.162139267,-0.168240413,0.952884436,0.969943225,0.91467309,0.156267911,0.141527876,-0.113479577,0.850157857,0.716143072,1.02332449,0.171604902,0.148956984,-0.162139267,1.197561145,1.211005807,1.000284791,0.113316767,0.15424259
303,-0.149397925,0.085174799,-0.168751448,-0.149397925,0.93678546,1.027727127,0.8637954,0.161058441,0.132183418,0.085174799,0.179979905,0.190899044,0.807964265,0.265861213,0.144423142,-0.168751448,1.138622761,1.234876871,1.051586509,0.127117097,0.153648257
304,-0.161530957,0.166670918,-0.157706976,-0.161530957,0.949905097,0.936750054,0.783927023,0.150029629,0.149161175,0.166670918,0.348009646,0.515775263,0.981644809,0.21723482,0.164055958,-0.157706976,1.196980715,1.320304036,1.080828786,0.133313254,0.157718286
305,-0.167097524,0.139242321,-0.169950604,-0.167097524,0.889014482,0.905264556,0.833566725,0.155743167,0.145777509,0.139242321,0.950325251,0.884028256,0.75829798,0.055505246,0.134723008,-0.169950604,1.256682038,1.341121912,1.025434732,0.088284306,0.07528393
306,-0.169800803,0.169504061,-0.177251488,-0.169800803,0.847628832,0.958201647,0.873126507,0.142166808,0.140237242,0.169504061,0.815066099,0.818972349,0.82735312,-0.022634042,0.144070536,-0.177251488,1.200695276,1.302045226,0.98137784,0.124253713,0.041574791
307,-0.168839067,0.159719616,-0.172919035,-0.168839067,0.91742444,0.973201156,0.885691404,0.145687118,0.155365467,0.159719616,0.564395487,0.677310944,0.842989922,0.052759808,0.143028885,-0.172919035,1.106566072,1.295621514,1.064441323,0.105576657,0.002442928
308,-0.147099495,0.148319021,-0.178457201,-0.147099495,0.93816781,0.928317964,0.856225967,0.139108241,0.145370394,0.148319021,0.732958198,0.910598636,0.906842291,0.133309409,0.1408768,-0.178457201,1.169393778,1.21772182,1.007959127,0.110033534,-0.006558657
309,-0.161855131,0.179071873,-0.156769365,-0.161855131,0.914089084,0.921974182,0.827003121,0.150998026,0.167948678,0.179071873,0.569555581,0.775749743,0.965250909,0.205669969,0.137604386,-0.156769365,0.667111278,0.72962296,0.734440207,-0.01894661,0.002803022
310,-0.161275595,0.121614359,-0.14236027,-0.161275595,0.904499888,0.926391959,0.899120927,0.144911185,0.160621792,0.121614359,0.865706146,0.865067482,0.918660462,0.061436512,0.150073305,-0.14236027,0.242043346,0.251231343,0.466705143,-0.09680558,-0.007724753
311,-0.153679878,0.108663,-0.106022127,-0.153679878,0.950238585,1.010654807,0.829906285,0.147004545,0.115028948,0.108663,0.758203626,0.77884078,0.896852672,0.020056779,0.162130877,-0.106022127,-0.153336257,-0.119645335,0.240242809,-0.201446861,-0.004350131
312,-0.186673403,0.093396366,-0.11287307,-0.186673403,0.962016046,1.050778508,0.808794558,0.150183022,0.087006152,0.093396366,0.856191099,0.882449448,0.875728548,0.02693125,0.145538256,-0.11287307,-0.333928168,-0.291831881,0.176599622,-0.181412458,0.030117927
313,-0.178249627,0.049343754,-0.109321617,-0.178249627,0.881205201,0.964928687,0.776823997,0.155065954,0.087673947,0.049343754,0.891335011,0.949709475,0.798188925,0.049305372,0.127167255,-0.109321617,-0.314940512,-0.315088898,0.172849834,-0.189884827,0.032041505
314,-0.193549812,0.093397446,-0.10054674,-0.193549812,0.883688033,0.950490177,0.772386968,0.161807328,0.075583734,0.093397446,0.579843879,0.838955581,1.003291607,0.148969606,0.098796092,-0.10054674,-0.272746593,-0.228605598,0.214055464,-0.138613954,0.062074549
315,-0.182922184,0.098027304,-0.090618916,-0.182922184,0.919095993,0.884959579,0.815934062,0.157378674,0.080016956,0.098027304,0.591496468,0.849729478,1.057906032,0.201784074,0.061913691,-0.090618916,-0.198446482,-0.118387558,0.254873216,-0.088686019,0.047289357
316,-0.194640964,0.096003063,-0.071401037,-0.194640964,0.976572275,0.962379932,0.827629447,0.149156407,0.104463756,0.096003063,0.652444005,0.793554127,1.010339499,0.214356154,0.081092328,-0.071401037,-0.116688512,-0.046776313,0.276180804,-0.058027185,0.068630837
317,-0.195025057,0.127111867,-0.057613321,-0.195025057,0.917723656,0.950783849,0.846668363,0.150731146,0.108330548,0.127111867,0.63300699,0.806660473,1.037713766,0.157785177,0.083769366,-0.057613321,0.002507964,0.114146069,0.18884334,-0.034997549,0.074324764
318,-0.185338736,0.137166589,-0.044661216,-0.185338736,0.912082195,0.979118049,0.774886966,0.161741406,0.116816141,0.137166589,0.59333241,0.784151793,1.048888206,0.1090637,0.091206431,-0.044661216,0.134302616,0.206192791,0.23383905,0.021041542,0.061335512
319,-0.175479412,0.150337785,-0.030753829,-0.175479412,0.91741389,1.007019281,0.801867664,0.163544387,0.111029275,0.150337785,0.612252355,0.808662891,0.969053566,0.103160873,0.128904417,-0.030753829,0.16298081,0.23815605,0.29962188,0.046114013,0.075131498
320,-0.168678939,0.132211179,0.007897228,-0.168678939,0.91029644,0.975115478,0.825602829,0.145479977,0.123052873,0.132211179,0.59670347,0.837495148,1.019709229,0.105189562,0.153231323,0.007897228,0.215165541,0.269132614,0.291057765,0.055750132,0.083774902
321,-0.177969128,0.137553439,-0.014910229,-0.177969128,0.952277541,1.016785264,0.752474725,0.16144298,0.136858538,0.137553439,0.594331324,0.819782913,1.057340741,0.078719437,0.157683372,-0.014910229,0.710538566,1.086259604,0.345585406,0.059035111,0.069848366
322,-0.186012983,0.154250681,-0.028275594,-0.186012983,0.885699093,1.007914305,0.755518436,0.140878037,0.131016105,0.154250681,0.609986782,0.865756035,0.973807275,0.105916277,0.147180036,-0.028275594,1.606297374,1.793058157,0.942735493,0.115273505,0.066926338
323,-0.175850779,0.141711831,-0.021767683,-0.175850779,0.867824614,1.001768589,0.713898718,0.138844416,0.126267463,0.141711831,0.629860818,0.921739817,1.013374567,0.113991618,0.144629374,-0.021767683,1.468170404,1.515482664,0.646135688,0.115353547,0.060753956
324,-0.159918725,0.172357529,0.011024378,-0.159918725,0.891136885,1.075188994,0.57100004,0.136707917,0.11807815,0.172357529,0.659928024,0.93752557,1.019953728,0.099054858,0.141291693,0.011024378,1.648503423,1.828654885,0.734013259,0.099366181,0.068716086
325,-0.164518028,0.15556699,-0.038639143,-0.164518028,0.836154938,1.038331866,0.636528075,0.120864205,0.113959737,0.15556699,0.669912517,1.035817981,0.889907777,0.093098767,0.134270191,-0.038639143,1.706470132,1.757494926,0.726349592,0.081780873,0.059069201
326,-0.16339761,0.157084823,-0.021645978,-0.16339761,0.865158737,1.005471826,0.68193835,0.119611092,0.107302107,0.157084823,0.673603237,1.050393224,0.919148624,0.114542171,0.139765501,-0.021645978,1.597818613,1.793774962,0.726662278,0.077236503,0.077131458
327,-0.182323009,0.163206398,-0.031498246,-0.182323009,0.885753155,1.005129576,0.702240527,0.087097883,0.102215923,0.163206398,0.697730541,1.047865272,0.971755505,0.089301288,0.142482013,-0.031498246,1.590329289,1.832707405,0.734432101,0.058599301,0.053181343
328,-0.160634995,0.154416531,-0.004535399,-0.160634995,0.89872694,0.970269442,0.696573913,0.090737961,0.109506495,0.154416531,0.723762274,1.035881996,0.968154311,0.111609727,0.139658883,-0.004535399,1.59029758,1.772947669,0.725833714,0.085119694,0.052824177
329,-0.16898334,0.146928698,-0.021018893,-0.16898334,0.977624834,1.103755951,0.735502183,0.084336989,0.104791872,0.146928698,0.876582026,1.091507077,0.803644776,0.039156619,0.0980988,-0.021018893,1.57976532,1.803586006,0.73396337,0.048051536,0.069050483
330,-0.144480079,0.038623698,-0.025942758,-0.144480079,0.995362222,1.115908623,0.730168462,0.083971269,0.107383139,0.038623698,1.146409273,1.212424994,0.728577316,-0.006589826,0.095470868,-0.025942758,1.618716717,1.773037553,0.74675411,0.04765366,0.04921034
331,-0.14778924,0.025803581,-0.026934065,-0.14778924,1.033890486,1.130097866,0.727409005,0.079042338,0.099054985,0.025803581,1.282815933,1.197192192,0.582177818,0.001462035,0.094564475,-0.026934065,1.62814939,1.806447983,0.693348467,0.057455614,0.047441453
332,-0.151022434,0.006925214,0.011430174,-0.151022434,1.078908086,1.175822735,0.726351857,0.084644243,0.095186785,0.006925214,1.343202949,1.251317739,0.510277748,0.07548067,0.079496659,0.011430174,1.665890694,1.893226504,0.516753912,0.053829186,0.053803004
333,-0.142068446,-0.056874342,-0.017533913,-0.142068446,1.122439384,1.185832739,0.709149659,0.094334766,0.090481348,-0.056874342,1.393156767,1.309827685,0.461760342,0.045815058,0.08394707,-0.017533913,1.718327045,1.898946643,0.500456512,0.075572751,0.062005363
334,-0.129031479,-0.080718584,-0.010586731,-0.129031479,1.161589622,1.210800052,0.706213236,0.071945049,0.105288722,-0.080718584,1.446317792,1.330483317,0.438658446,0.060195766,0.060655437,-0.010586731,1.681268096,1.834555984,0.436997175,0.057014205,0.049935162
335,-0.128310353,-0.110156223,-0.020868868,-0.128310353,1.227309346,1.240392089,0.707555056,0.07971438,0.080814116,-0.110156223,1.440601945,1.374725819,0.469905317,0.056425609,0.050476216,-0.020868868,1.711889744,1.823901296,0.43307218,0.060852431,0.026023095
336,-0.118315555,-0.13250035,-0.015321404,-0.118315555,1.251988769,1.271878958,0.687197924,0.076506086,0.07001774,-0.13250035,1.436183333,1.394738436,0.47156021,0.056526288,0.04682859,-0.015321404,1.706143379,1.821227431,0.408324242,0.064463519,0.018433904
337,-0.12150792,-0.166370079,0.004191361,-0.12150792,1.281571984,1.281705856,0.687847435,0.067739896,0.070846848,-0.166370079,1.427693725,1.435010433,0.487783253,0.074848287,0.047192499,0.004191361,1.68960011,1.841271043,0.414574027,0.081907667,0.012675939
338,-0.101401471,-0.191072419,-0.009075254,-0.101401471,1.295320988,1.305184364,0.698300481,0.062178411,0.075009353,-0.191072419,1.401325107,1.443562269,0.475194603,0.083705783,0.04420945,-0.009075254,1.736585021,1.819722295,0.396158904,0.062360629,0.025847601
339,-0.104631715,-0.195121586,0.005335651,-0.104631715,1.267919779,1.316684961,0.687891722,0.084019683,0.068415262,-0.195121586,1.42107904,1.453049898,0.487670958,0.078996979,0.043189071,0.005335651,1.748615742,1.808357358,0.384077102,0.057928614,-0.013925362
340,-0.100058503,-0.175578326,-0.001318291,-0.100058503,1.29016757,1.347873449,0.682796836,0.064186275,0.08070904,-0.175578326,1.417604208,1.464378476,0.504654527,0.089088775,0.037144028,-0.001318291,1.739310503,1.790727973,0.383239448,0.047151126,-0.010020422
341,-0.103979684,-0.176821083,0.054876827,-0.103979684,1.285516024,1.363985658,0.675603032,0.073952042,0.072039478,-0.176821083,1.461152554,1.482326627,0.482076794,0.076971866,0.029852333,0.054876827,1.715046525,1.785881281,0.406617016,0.061994858,-0.042226464
342,-0.101421259,-0.172807872,0.01056353,-0.101421259,1.271011472,1.366676927,0.671420217,0.065219268,0.067603938,-0.172807872,1.485254407,1.555005789,0.415546417,0.082952671,0.028723003,0.01056353,1.658754349,1.784314752,0.341108739,0.041627891,-0.059741959
343,-0.109191112,-0.15897277,0.032381788,-0.109191112,1.269704103,1.390483499,0.670957685,0.075502448,0.066244118,-0.15897277,1.493717432,1.67073822,0.399403304,0.057505421,0.021777542,0.032381788,1.692944527,1.835596442,0.370323181,0.020263648,-0.081224047
344,-0.07716053,-0.157383054,0.050601069,-0.07716053,1.294379354,1.379998088,0.662221074,0.071238063,0.048416011,-0.157383054,1.505002141,1.709474325,0.337271154,0.089455746,0.0122423,0.050601069,1.753758311,1.834067822,0.31621027,0.046103202,-0.074276678
345,-0.074570738,-0.153711826,0.068068549,-0.074570738,1.282451034,1.410960197,0.639921546,0.062051781,0.049339049,-0.153711826,1.534577489,1.71438396,0.319314152,0.081580676,0.002983375,0.068068549,1.783279061,1.857301235,0.384585291,0.022083493,-0.084461823
346,-0.083838277,-0.167576402,0.09063857,-0.083838277,1.324301124,1.497258544,0.50032711,0.061991028,0.047774397,-0.167576402,1.544613838,1.699693561,0.351500034,0.081903145,-0.011916107,0.09063857,1.680397868,1.779600143,0.351191819,0.026727794,-0.089170545
347,-0.085514762,-0.152593315,0.061200045,-0.085514762,1.390979052,1.644364357,0.376244456,0.074960686,0.055702403,-0.152593315,1.542814493,1.6975106,0.271803945,0.06848006,-0.019710114,0.061200045,1.68068862,1.774042964,0.341628969,0.004131889,-0.073876828
348,-0.077732779,-0.144234657,0.124650866,-0.077732779,1.467452765,1.694595218,0.338248193,0.06107153,0.043088309,-0.144234657,1.554826617,1.685331821,0.272385627,0.072333761,-0.019513564,0.124650866,1.739757419,1.768435597,0.310425878,-0.015886823,-0.069853216
349,-0.066027902,-0.132820994,0.102470219,-0.066027902,1.501546025,1.705585122,0.336894572,0.069889359,0.036143474,-0.132820994,1.608278275,1.710758924,0.295802534,0.066164784,-0.030257557,0.102470219,1.765349388,1.816681385,0.31711638,-0.025883123,-0.069929905
350,-0.044393413,-0.132862389,0.09381856,-0.044393413,1.521283388,1.711628199,0.337269187,0.079071999,0.0254601,-0.132862389,1.616710067,1.65406239,0.268214703,0.048921444,-0.05399216,0.09381856,1.708276033,1.827871203,0.363120824,-0.039690174,-0.062281139
351,-0.046926133,-0.126402557,0.088881098,-0.046926133,1.550805092,1.696527243,0.292287707,0.07198178,-0.002925033,-0.126402557,1.641120553,1.690119028,0.294732332,0.051070966,-0.0812013,0.088881098,1.695310354,1.801154137,0.337366611,-0.056607939,-0.059494831
352,-0.035073228,-0.089638524,0.106420971,-0.035073228,1.562193513,1.73639214,0.275834292,0.084761322,-0.012077671,-0.089638524,1.578228712,1.658930659,0.326246291,0.021196907,-0.09768115,0.106420971,1.758249998,1.798251152,0.35529536,-0.093383715,-0.069003791
353,-0.038895555,-0.094487272,0.103936613,-0.038895555,1.585816503,1.688871622,0.269789755,0.054145582,-0.02364992,-0.094487272,1.577761412,1.689808369,0.239297882,0.039126702,-0.093937516,0.103936613,1.864211798,1.777713656,0.34636575,-0.107090786,-0.082702413
354,-0.027287774,-0.058120273,0.093906611,-0.027287774,1.645412922,1.667065024,0.298797071,0.069486484,-0.019640943,-0.058120273,1.667431474,1.688882351,0.23885113,0.023597794,-0.14015317,0.093906611,1.842806935,1.818370104,0.317294896,-0.051686399,-0.090103708
355,-0.001923941,-0.0543411,0.105430402,-0.001923941,1.624199986,1.699318409,0.258015186,0.044634476,-0.032423858,-0.0543411,1.701443195,1.726380348,0.220967427,-0.010994621,-0.097426459,0.105430402,1.777610183,1.797760725,0.324281693,0.08386454,-0.111312717
356,-0.013032474,-0.030736245,0.09645462,-0.013032474,1.577962041,1.672605276,0.25323239,0.032244369,-0.060489893,-0.030736245,1.681874156,1.696588993,0.253813624,0.013497578,0.007974342,0.09645462,1.781612277,1.755558729,0.356604993,0.129243463,-0.077892005
357,-0.007903792,-0.023661651,0.10529732,-0.007903792,1.546303749,1.681578159,0.259055406,0.026074579,-0.062331952,-0.023661651,1.592035532,1.649566174,0.22920537,-0.019798964,0.065482467,0.10529732,1.791203022,1.76522553,0.284297854,0.121875972,-0.020680727
358,-0.004193529,0.003779314,0.111947678,-0.004193529,1.651149869,1.655528307,0.220658943,0.025492476,-0.084993258,0.003779314,1.652315378,1.661050797,0.263355494,-0.015221095,0.103070967,0.111947678,1.86119628,1.841703773,0.308644235,0.096758947,0.022479881
359,0.012660429,0.022304229,0.126140922,0.012660429,1.696180463,1.720831633,0.255636781,0.018749056,-0.113378502,0.022304229,1.656863451,1.684457064,0.21879673,-0.027247446,0.10784357,0.126140922,1.88914454,1.833808661,0.351149976,0.062233124,0.032113243
360,0.04248818,0.027692728,0.119843982,0.04248818,1.642602444,1.708998919,0.228936031,0.029931443,-0.118432045,0.027692728,1.641413569,1.694480181,0.205428585,-0.040040947,0.091882594,0.119843982,1.846572518,1.772124887,0.334974647,0.047600091,0.008528851
361,0.067616262,0.068751119,0.151908055,0.067616262,1.553308129,1.632837892,0.242819041,0.006050186,-0.025848581,0.068751119,1.597741127,1.779849052,0.218662128,-0.057115074,0.074014731,0.151908055,1.901699185,1.759475946,0.302328706,0.035139509,0.010539249
362,0.054416478,0.078988872,0.148705602,0.054416478,1.606562257,1.653586864,0.306161463,-0.022670913,0.035311617,0.078988872,1.602307677,1.710147023,0.249324232,-0.087282673,0.038024731,0.148705602,1.90237391,1.821313381,0.338453531,0.000932094,-0.034193102
363,0.043044955,0.111286484,0.164553568,0.043044955,1.655405641,1.685156345,0.219602242,-0.028538587,0.105520949,0.111286484,1.702688336,1.687201381,0.236659259,-0.091605738,0.011393866,0.164553568,1.783079147,1.722462058,0.265497267,-0.017801289,-0.052105762
364,0.060495429,0.128464833,0.15317297,0.060495429,1.662584782,1.716139555,0.201237068,-0.043276727,0.117165618,0.128464833,1.735363245,1.677368402,0.155244067,-0.096160829,-0.044712666,0.15317297,1.630002856,1.700067163,0.242738053,-0.012611612,-0.081228778
365,0.040890861,0.149821743,0.138851732,0.040890861,1.598966122,1.736283422,0.229263723,-0.065567389,0.099352978,0.149821743,1.750604153,1.760132194,0.218395919,0.021444205,-0.080538496,0.138851732,1.384771466,1.674027324,0.216005608,-0.009692153,-0.127155229
366,0.058580969,0.149382651,0.132271454,0.058580969,1.627269983,1.675718427,0.217012495,-0.084955797,0.066274516,0.149382651,1.697999954,1.694530129,0.181086332,0.103200592,-0.114349872,0.132271454,1.130129576,1.708228827,0.238737926,-0.008614345,-0.15011026
367,0.058354378,0.149065942,0.124391392,0.058354378,1.711642385,1.692480683,0.244389117,-0.103098303,0.036754854,0.149065942,1.705180526,1.674195409,0.203510016,0.146273792,-0.08246164,0.124391392,0.938925028,1.636915445,0.239418596,0.001202874,-0.132782549
368,0.068755157,0.180457234,0.128010467,0.068755157,1.757960916,1.689880371,0.195748731,-0.124803737,0.014388189,0.180457234,1.759241223,1.711913109,0.217350841,0.122071348,-0.075438172,0.128010467,0.943511248,1.669129252,0.213258967,0.02626178,-0.122351415
369,0.059479088,0.158145964,0.130942732,0.059479088,1.727657437,1.756271601,0.182245404,-0.095451273,-0.027662721,0.158145964,1.773825169,1.718603611,0.257145286,0.129539639,-0.069147594,0.130942732,0.885806918,1.675101519,0.229338154,0.013208255,-0.111119799
370,0.079680964,0.144124016,0.146099776,0.079680964,1.674956679,1.707096815,0.210397124,0.057630647,-0.072100334,0.144124016,1.831665993,1.710413456,0.241136387,0.095327906,-0.078797027,0.146099776,0.877503335,1.691885591,0.202396542,0.019717369,-0.092865191
371,0.06788712,0.181215197,0.14005582,0.06788712,1.735503674,1.660671949,0.244410157,0.140618533,-0.127279446,0.181215197,1.80226934,1.671747565,0.211593956,0.074780673,-0.097182356,0.14005582,0.898290157,1.640168667,0.189834356,-0.023975991,-0.115071774
372,0.095953308,0.190377101,0.176559106,0.095953308,1.748625636,1.680634022,0.210465491,0.14375034,-0.075703129,0.190377101,1.830658436,1.70803225,0.242186368,0.034463882,-0.097868912,0.176559106,0.861170232,1.698167443,0.212477967,-0.005142234,-0.117145687
373,0.094061807,0.170823872,0.160293147,0.094061807,1.788013577,1.764651299,0.238619715,0.087564074,-0.072585464,0.170823872,1.753005981,1.726420522,0.211128607,0.017066948,-0.116548777,0.160293147,0.788223803,1.746332884,0.223991513,-0.030986944,-0.122355804
374,0.097429007,0.182822511,0.159667879,0.097429007,1.794571519,1.698395133,0.235579833,0.054912604,-0.065830544,0.182822511,1.716195226,1.617449045,0.23711884,-0.01723082,-0.143759742,0.159667879,0.829952836,1.664726377,0.215711653,-0.053535454,-0.128461629
375,0.083529696,0.180795789,0.151927248,0.083529696,1.769735932,1.646145344,0.180061474,0.000810187,-0.083421499,0.180795789,1.517280936,1.699323058,0.193670914,-0.042321958,-0.160912782,0.151927248,0.930712461,1.658723235,0.22257179,-0.062335521,-0.148051679
376,0.109783985,0.187918812,0.17749919,0.109783985,1.777193069,1.720803261,0.24616541,-0.026108079,-0.097569257,0.187918812,1.251660824,1.708580852,0.201877236,-0.090671286,-0.125946566,0.17749919,0.871788323,1.737072587,0.21475628,-0.055409491,-0.149562851
377,0.107516661,0.201113716,0.186326623,0.107516661,1.700342298,1.700599551,0.183107734,-0.048641831,-0.11525619,0.201113716,1.042948484,1.674738526,0.247703925,-0.042707816,-0.058785908,0.186326623,0.891456246,1.670340419,0.208084196,-0.064362727,-0.156402886
378,0.117179625,0.208023146,0.173149019,0.117179625,1.614436269,1.698684812,0.226093113,-0.016040631,-0.133280128,0.208023146,0.971443832,1.64352572,0.253735125,-0.029212642,-0.034247708,0.173149019,0.888873637,1.684557676,0.225210592,-0.045009471,-0.130523235
379,0.130038738,0.202677682,0.179522812,0.130038738,1.4389714,1.656825662,0.178019464,-0.011678194,-0.13346751,0.202677682,0.9364537,1.676452398,0.20526579,-0.030504338,-0.008326739,0.179522812,0.852131367,1.690938473,0.134765685,-0.028898714,-0.103164248
380,0.135355353,0.182412818,0.184877083,0.135355353,1.203894496,1.747454882,0.203764498,0.001336509,-0.138544425,0.182412818,0.927473247,1.748313189,0.218509734,-0.013667866,-0.025656294,0.184877083,0.93839711,1.69178319,0.22145927,-0.043117777,-0.10154146
381,0.14628458,0.199902803,0.191177562,0.14628458,1.014810562,1.678704381,0.264434218,-0.006606329,-0.09871836,0.199902803,0.903110802,1.65154016,0.220274255,-0.039749689,-0.033454936,0.191177562,0.873942733,1.652869344,0.230929956,-0.046689339,-0.114352629
382,0.145576864,0.199632317,0.187855005,0.145576864,0.974181056,1.71032393,0.228551224,-0.018271672,-0.038589358,0.199632317,0.924382448,1.639295459,0.217474669,-0.041410938,-0.062977642,0.187855005,0.934880853,1.746865511,0.270293385,-0.050986186,-0.131895065
383,0.153601199,0.217141986,0.19159776,0.153601199,0.915317535,1.680618644,0.19717516,-0.041307952,-0.004289128,0.217141986,0.872323513,1.732444406,0.2212708,-0.051481467,-0.083635941,0.19159776,0.866158128,1.702237487,0.214842737,-0.048792176,-0.120890625
384,0.147720218,0.204561412,0.212081283,0.147720218,0.929172337,1.711605906,0.181849808,-0.050915405,-0.007631745,0.204561412,0.813293874,1.68043375,0.214966491,-0.064844698,-0.117140844,0.212081283,0.853537023,1.652683735,0.202555642,-0.032172721,-0.130168781
